{"learner":{"attributes":{},"feature_names":["price","freight_value","payment_value","product_weight_g","product_length_cm","product_height_cm","product_width_cm","payment_installments","product_photos_qty","order_month","order_dayofweek","order_hour","price_bucket_1","price_bucket_2","price_bucket_3","payment_type_credit_card","payment_type_debit_card","payment_type_voucher","product_category_name_english_air_conditioning","product_category_name_english_art","product_category_name_english_arts_and_craftmanship","product_category_name_english_audio","product_category_name_english_auto","product_category_name_english_baby","product_category_name_english_bed_bath_table","product_category_name_english_books_general_interest","product_category_name_english_books_imported","product_category_name_english_books_technical","product_category_name_english_cds_dvds_musicals","product_category_name_english_christmas_supplies","product_category_name_english_cine_photo","product_category_name_english_computers","product_category_name_english_computers_accessories","product_category_name_english_consoles_games","product_category_name_english_construction_tools_construction","product_category_name_english_construction_tools_lights","product_category_name_english_construction_tools_safety","product_category_name_english_cool_stuff","product_category_name_english_costruction_tools_garden","product_category_name_english_costruction_tools_tools","product_category_name_english_diapers_and_hygiene","product_category_name_english_drinks","product_category_name_english_dvds_blu_ray","product_category_name_english_electronics","product_category_name_english_fashio_female_clothing","product_category_name_english_fashion_bags_accessories","product_category_name_english_fashion_childrens_clothes","product_category_name_english_fashion_male_clothing","product_category_name_english_fashion_shoes","product_category_name_english_fashion_sport","product_category_name_english_fashion_underwear_beach","product_category_name_english_fixed_telephony","product_category_name_english_flowers","product_category_name_english_food","product_category_name_english_food_drink","product_category_name_english_furniture_bedroom","product_category_name_english_furniture_decor","product_category_name_english_furniture_living_room","product_category_name_english_furniture_mattress_and_upholstery","product_category_name_english_garden_tools","product_category_name_english_health_beauty","product_category_name_english_home_appliances","product_category_name_english_home_appliances_2","product_category_name_english_home_comfort_2","product_category_name_english_home_confort","product_category_name_english_home_construction","product_category_name_english_housewares","product_category_name_english_industry_commerce_and_business","product_category_name_english_kitchen_dining_laundry_garden_furniture","product_category_name_english_la_cuisine","product_category_name_english_luggage_accessories","product_category_name_english_market_place","product_category_name_english_music","product_category_name_english_musical_instruments","product_category_name_english_office_furniture","product_category_name_english_party_supplies","product_category_name_english_perfumery","product_category_name_english_pet_shop","product_category_name_english_security_and_services","product_category_name_english_signaling_and_security","product_category_name_english_small_appliances","product_category_name_english_small_appliances_home_oven_and_coffee","product_category_name_english_sports_leisure","product_category_name_english_stationery","product_category_name_english_tablets_printing_image","product_category_name_english_telephony","product_category_name_english_toys","product_category_name_english_watches_gifts","customer_city_brasilia","customer_city_campinas","customer_city_curitiba","customer_city_guarulhos","customer_city_other","customer_city_porto alegre","customer_city_rio de janeiro","customer_city_salvador","customer_city_sao bernardo do campo","customer_city_sao paulo","customer_state_AL","customer_state_AM","customer_state_AP","customer_state_BA","customer_state_CE","customer_state_DF","customer_state_ES","customer_state_GO","customer_state_MA","customer_state_MG","customer_state_MS","customer_state_MT","customer_state_PA","customer_state_PB","customer_state_PE","customer_state_PI","customer_state_PR","customer_state_RJ","customer_state_RN","customer_state_RO","customer_state_RR","customer_state_RS","customer_state_SC","customer_state_SE","customer_state_SP","customer_state_TO"],"feature_types":["float","float","float","float","float","float","float","float","float","int","int","int","i","i","i","i","i","i","i","i","i","i","i","i","i","i","i","i","i","i","i","i","i","i","i","i","i","i","i","i","i","i","i","i","i","i","i","i","i","i","i","i","i","i","i","i","i","i","i","i","i","i","i","i","i","i","i","i","i","i","i","i","i","i","i","i","i","i","i","i","i","i","i","i","i","i","i","i","i","i","i","i","i","i","i","i","i","i","i","i","i","i","i","i","i","i","i","i","i","i","i","i","i","i","i","i","i","i","i","i","i","i","i","i"],"gradient_booster":{"model":{"gbtree_model_param":{"num_parallel_tree":"1","num_trees":"100"},"iteration_indptr":[0,1,2,3,4,5,6,7,8,9,10,11,12,13,14,15,16,17,18,19,20,21,22,23,24,25,26,27,28,29,30,31,32,33,34,35,36,37,38,39,40,41,42,43,44,45,46,47,48,49,50,51,52,53,54,55,56,57,58,59,60,61,62,63,64,65,66,67,68,69,70,71,72,73,74,75,76,77,78,79,80,81,82,83,84,85,86,87,88,89,90,91,92,93,94,95,96,97,98,99,100],"tree_info":[0,0,0,0,0,0,0,0,0,0,0,0,0,0,0,0,0,0,0,0,0,0,0,0,0,0,0,0,0,0,0,0,0,0,0,0,0,0,0,0,0,0,0,0,0,0,0,0,0,0,0,0,0,0,0,0,0,0,0,0,0,0,0,0,0,0,0,0,0,0,0,0,0,0,0,0,0,0,0,0,0,0,0,0,0,0,0,0,0,0,0,0,0,0,0,0,0,0,0,0],"trees":[{"base_weights":[1.5390496E-3,1.2777999E-1,-2.3097125E-1,7.8954756E-2,4.54501E-1,-2.564533E-1,1.1398438E0,-5.083929E-1,1.0850443E-1,4.9425626E-1,-7.4278325E-1,-3.1156766E-1,2.5275174E-1,6.8967235E-1,1.6115013E0,-7.37345E-2,8.208816E-2,8.257259E-3,7.91276E-2,5.5285163E-2,-7.8760665E-3,9.412426E-2,-1.3984981E-1,-4.430015E-2,-2.7252191E-3,3.5766788E-2,-6.777761E-2,1.3269742E-2,1.6147089E-1,1.6830443E-1,-1.2727273E-1],"categories":[],"categories_nodes":[],"categories_segments":[],"categories_sizes":[],"default_left":[0,1,0,0,0,0,0,0,0,0,0,1,0,0,0,0,0,0,0,0,0,0,0,0,0,0,0,0,0,0,0],"id":0,"left_children":[1,3,5,7,9,11,13,15,17,19,21,23,25,27,29,-1,-1,-1,-1,-1,-1,-1,-1,-1,-1,-1,-1,-1,-1,-1,-1],"loss_changes":[8.493614E2,2.9913553E2,3.559812E2,2.832546E2,1.16414215E2,2.8065515E2,3.838408E1,2.3853098E2,2.7501443E2,7.929309E1,8.827763E1,3.371125E2,9.562091E1,4.9722267E1,2.0731857E1,0E0,0E0,0E0,0E0,0E0,0E0,0E0,0E0,0E0,0E0,0E0,0E0,0E0,0E0,0E0,0E0],"parents":[2147483647,0,0,1,1,2,2,3,3,4,4,5,5,6,6,7,7,8,8,9,9,10,10,11,11,12,12,13,13,14,14],"right_children":[2,4,6,8,10,12,14,16,18,20,22,24,26,28,30,-1,-1,-1,-1,-1,-1,-1,-1,-1,-1,-1,-1,-1,-1,-1,-1],"split_conditions":[-1.3210353E-1,1.027102E0,1E0,-7.775004E-1,1E0,1E0,6.1820364E-1,1E0,1E0,9.97391E-1,-7.06557E-1,8.5624003E-1,8.378949E-1,1E0,9E0,-7.37345E-2,8.208816E-2,8.257259E-3,7.91276E-2,5.5285163E-2,-7.8760665E-3,9.412426E-2,-1.3984981E-1,-4.430015E-2,-2.7252191E-3,3.5766788E-2,-6.777761E-2,1.3269742E-2,1.6147089E-1,1.6830443E-1,-1.2727273E-1],"split_indices":[1,6,61,1,66,82,4,82,45,3,1,6,3,115,9,0,0,0,0,0,0,0,0,0,0,0,0,0,0,0,0],"split_type":[0,0,0,0,0,0,0,0,0,0,0,0,0,0,0,0,0,0,0,0,0,0,0,0,0,0,0,0,0,0,0],"sum_hessian":[2.8934768E4,1.8753207E4,1.0181561E4,1.6316158E4,2.4370476E3,9.996548E3,1.8501273E2,7.8077545E2,1.5535383E4,2.3592954E3,7.775212E1,9.020583E3,9.759648E2,9.5922325E1,8.909041E1,6.6643506E2,1.1434041E2,1.4968016E4,5.67368E2,2.140453E3,2.1884253E2,2.1668081E1,5.608404E1,6.16846E3,2.852123E3,8.776286E2,9.833617E1,6.0586163E1,3.5336163E1,8.734041E1,1.75E0],"tree_param":{"num_deleted":"0","num_feature":"124","num_nodes":"31","size_leaf_vector":"1"}},{"base_weights":[6.4957165E-3,-5.122154E-2,4.3595424E-1,-1.0258863E-1,4.5573863E-1,5.477939E-1,1.7547886E-1,-7.9205856E-2,-1.1581801E0,6.973982E-1,-1.7075661E-1,3.1434909E-1,7.3315215E-1,-2.0707963E-1,6.3733685E-1,3.086967E-3,-2.7959192E-2,-3.1398777E-2,-1.4066134E-1,6.414344E-2,1.4864746E-1,-4.9933303E-2,2.4701035E-2,3.7352894E-2,-1.1846944E-1,-8.2991615E-2,7.6654345E-2,1.1343604E-2,-1.1059582E-1,6.987068E-2,-1.8151794E-1],"categories":[],"categories_nodes":[],"categories_segments":[],"categories_sizes":[],"default_left":[0,0,0,0,0,0,0,0,0,0,0,0,0,0,0,0,0,0,0,0,0,0,0,0,0,0,0,0,0,0,0],"id":1,"left_children":[1,3,5,7,9,11,13,15,17,19,21,23,25,27,29,-1,-1,-1,-1,-1,-1,-1,-1,-1,-1,-1,-1,-1,-1,-1,-1],"loss_changes":[7.2094604E2,6.677322E2,1.0028644E2,5.7456067E2,3.572808E2,1.0406439E2,1.8328079E2,5.0244016E2,1.0535846E2,7.423309E1,9.03742E1,9.5233925E1,7.071863E1,1.6368565E2,7.198685E1,0E0,0E0,0E0,0E0,0E0,0E0,0E0,0E0,0E0,0E0,0E0,0E0,0E0,0E0,0E0,0E0],"parents":[2147483647,0,0,1,1,2,2,3,3,4,4,5,5,6,6,7,7,8,8,9,9,10,10,11,11,12,12,13,13,14,14],"right_children":[2,4,6,8,10,12,14,16,18,20,22,24,26,28,30,-1,-1,-1,-1,-1,-1,-1,-1,-1,-1,-1,-1,-1,-1,-1,-1],"split_conditions":[1E0,1E0,-1.3210353E-1,3.2815666E0,4.2396817E-1,6.1820364E-1,8.9907244E-2,-1.3210353E-1,-5.665536E-1,4.2903543E0,-1.3774754E-1,4.9372396E-1,-6.889781E-1,-1.414013E-1,1E0,3.086967E-3,-2.7959192E-2,-3.1398777E-2,-1.4066134E-1,6.414344E-2,1.4864746E-1,-4.9933303E-2,2.4701035E-2,3.7352894E-2,-1.1846944E-1,-8.2991615E-2,7.6654345E-2,1.1343604E-2,-1.1059582E-1,6.987068E-2,-1.8151794E-1],"split_indices":[24,56,1,8,8,4,2,1,1,4,2,4,1,0,114,0,0,0,0,0,0,0,0,0,0,0,0,0,0,0,0],"split_type":[0,0,0,0,0,0,0,0,0,0,0,0,0,0,0,0,0,0,0,0,0,0,0,0,0,0,0,0,0,0,0],"sum_hessian":[2.9083553E4,2.5638709E4,3.444844E3,2.3280627E4,2.358082E3,2.4092761E3,1.0355679E3,2.2777156E4,5.0346967E2,1.7016046E3,6.564774E2,1.0675159E3,1.3417603E3,5.6671094E2,4.6885693E2,1.4701962E4,8.0751953E3,1.1499002E2,3.884796E2,1.5906066E3,1.1099808E2,3.6735507E2,2.8912238E2,1.0276948E3,3.982093E1,2.7565113E1,1.3141952E3,4.183961E2,1.4831487E2,4.5810867E2,1.0748269E1],"tree_param":{"num_deleted":"0","num_feature":"124","num_nodes":"31","size_leaf_vector":"1"}},{"base_weights":[5.539186E-3,2.6226591E-2,-1.1782879E0,-1.488028E-2,4.8317116E-1,-1.2826295E0,1.1057289E0,1.1182073E-1,-1.6101696E-1,6.873542E-1,-6.0656305E-2,-9.240539E-1,-1.6133034E0,-1.4880958E-1,1.7492045E-1,4.5535443E-3,3.937267E-2,-2.1507742E-3,-4.16183E-2,8.015065E-2,1.7631734E-3,4.2361688E-2,-3.833885E-2,-1.1998594E-1,2.3079935E-2,1.0644765E-1,-1.7346486E-1],"categories":[],"categories_nodes":[],"categories_segments":[],"categories_sizes":[],"default_left":[0,0,0,0,0,0,1,0,0,0,0,0,0,0,0,0,0,0,0,0,0,0,0,0,0,0,0],"id":2,"left_children":[1,3,5,7,9,11,13,15,17,19,21,23,25,-1,-1,-1,-1,-1,-1,-1,-1,-1,-1,-1,-1,-1,-1],"loss_changes":[7.110136E2,5.35969E2,1.2025055E2,4.8474875E2,2.6154822E2,5.510437E1,3.985804E1,2.6201492E2,4.3278116E2,1.3089038E2,1.007783E2,7.3960175E1,8.209735E1,0E0,0E0,0E0,0E0,0E0,0E0,0E0,0E0,0E0,0E0,0E0,0E0,0E0,0E0],"parents":[2147483647,0,0,1,1,2,2,3,3,4,4,5,5,6,6,7,7,8,8,9,9,10,10,11,11,12,12],"right_children":[2,4,6,8,10,12,14,16,18,20,22,24,26,-1,-1,-1,-1,-1,-1,-1,-1,-1,-1,-1,-1,-1,-1],"split_conditions":[3.2815666E0,1E0,1E0,-1.4755154E-1,4.2396817E-1,-3.3632267E-1,4.424606E0,1.027102E0,-1.3883728E-1,1.0926014E0,-3.455286E-1,6E0,-5.2925235E-1,-1.4880958E-1,1.7492045E-1,4.5535443E-3,3.937267E-2,-2.1507742E-3,-4.16183E-2,8.015065E-2,1.7631734E-3,4.2361688E-2,-3.833885E-2,-1.1998594E-1,2.3079935E-2,1.0644765E-1,-1.7346486E-1],"split_indices":[8,56,90,8,8,5,8,6,0,5,0,10,3,0,0,0,0,0,0,0,0,0,0,0,0,0,0],"split_type":[0,0,0,0,0,0,0,0,0,0,0,0,0,0,0,0,0,0,0,0,0,0,0,0,0,0,0],"sum_hessian":[2.9030184E4,2.8532553E4,4.976292E2,2.6178496E4,2.3540579E3,4.7630826E2,2.1320938E1,1.402179E4,1.2156706E4,1.7112832E3,6.4277466E2,2.3033379E2,2.4597449E2,3.9770439E0,1.7343895E1,1.1353397E4,2.6683923E3,7.860273E3,4.296433E3,1.4619084E3,2.4937485E2,2.5692914E2,3.8584555E2,1.8589807E2,4.443571E1,1.0326328E1,2.3564816E2],"tree_param":{"num_deleted":"0","num_feature":"124","num_nodes":"27","size_leaf_vector":"1"}},{"base_weights":[-8.626807E-4,-6.872592E-2,3.0261353E-1,-8.964327E-2,1.1242303E0,6.931422E-1,4.8826557E-2,-1.1262063E-1,6.352162E-1,1.168831E0,-1.6982898E-1,1.2987475E0,6.1219966E-1,2.2535352E-1,-2.4950854E-1,8.119466E-3,-1.9420078E-2,6.886929E-2,-1.9058868E-1,1.3053231E-1,5.6078244E-2,1.3465859E-1,-1.5619014E-1,6.276328E-2,-1.8517964E-1,3.0993182E-2,-1.12247385E-1,-1.9642074E-2,-1.8930186E-1],"categories":[],"categories_nodes":[],"categories_segments":[],"categories_sizes":[],"default_left":[0,0,0,0,0,0,0,0,0,0,0,0,0,0,0,0,0,0,0,0,0,0,0,0,0,0,0,0,0],"id":3,"left_children":[1,3,5,7,9,11,13,15,17,19,-1,21,23,25,27,-1,-1,-1,-1,-1,-1,-1,-1,-1,-1,-1,-1,-1,-1],"loss_changes":[5.955656E2,5.8983295E2,5.237549E2,3.8692468E2,5.3261047E1,1.01241394E2,1.6880843E2,3.5599774E2,9.831088E1,3.2596375E1,0E0,3.556543E1,7.1057556E1,2.2989798E2,1.0360057E2,0E0,0E0,0E0,0E0,0E0,0E0,0E0,0E0,0E0,0E0,0E0,0E0,0E0,0E0],"parents":[2147483647,0,0,1,1,2,2,3,3,4,4,5,5,6,6,7,7,8,8,9,9,11,11,12,12,13,13,14,14],"right_children":[2,4,6,8,10,12,14,16,18,20,-1,22,24,26,28,-1,-1,-1,-1,-1,-1,-1,-1,-1,-1,-1,-1,-1,-1],"split_conditions":[1.1536626E0,1E0,-1.414013E-1,1E0,1E1,7E0,5.911755E-1,4E0,2.3E1,-2.4087477E-1,-1.6982898E-1,1.9252403E0,3.2945166E0,1E0,1.2E1,8.119466E-3,-1.9420078E-2,6.886929E-2,-1.9058868E-1,1.3053231E-1,5.6078244E-2,1.3465859E-1,-1.5619014E-1,6.276328E-2,-1.8517964E-1,3.0993182E-2,-1.12247385E-1,-1.9642074E-2,-1.8930186E-1],"split_indices":[7,61,0,45,9,11,0,9,11,0,0,4,4,87,9,0,0,0,0,0,0,0,0,0,0,0,0,0,0],"split_type":[0,0,0,0,0,0,0,0,0,0,0,0,0,0,0,0,0,0,0,0,0,0,0,0,0,0,0,0,0],"sum_hessian":[2.8916133E4,2.3632268E4,5.283866E3,2.3225947E4,4.0631995E2,2.0805596E3,3.2033066E3,2.2513146E4,7.128009E2,4.0057602E2,5.743913E0,2.4351955E2,1.8370399E3,2.0126512E3,1.1906553E3,6.6690513E3,1.5844096E4,6.9882336E2,1.3977539E1,3.2620438E2,7.4371635E1,2.4003474E2,3.4848065E0,1.826346E3,1.0693937E1,1.8945363E3,1.1811508E2,1.1544832E3,3.6172016E1],"tree_param":{"num_deleted":"0","num_feature":"124","num_nodes":"29","size_leaf_vector":"1"}},{"base_weights":[-1.3323964E-3,1.826181E-2,-1.0879053E0,-3.6389098E-2,3.4542787E-1,1.3285148E-1,-1.2119938E0,-5.0892495E-2,9.0883183E-1,6.145444E-1,-8.45021E-2,-1.7292187E-1,1.5704463E0,-1.367253E0,-8.759154E-2,-1.1972143E-2,1.572088E-2,9.576865E-2,-1.589319E-1,6.398492E-2,-1.951419E-1,1.9186456E-2,-5.745202E-2,-1.0352743E-1,1.7310849E-1,-1.4400743E-1,1.5856452E-1,-1.6516632E-1,6.405721E-2],"categories":[],"categories_nodes":[],"categories_segments":[],"categories_sizes":[],"default_left":[0,1,0,0,0,0,0,0,0,0,0,0,0,0,0,0,0,0,0,0,0,0,0,0,0,0,0,0,0],"id":4,"left_children":[1,3,5,7,9,11,13,15,17,19,21,-1,23,25,27,-1,-1,-1,-1,-1,-1,-1,-1,-1,-1,-1,-1,-1,-1],"loss_changes":[6.162227E2,5.0835443E2,7.782471E1,3.3402777E2,4.7089996E2,1.3176187E2,8.114203E1,3.4371066E2,4.646173E1,1.6376953E2,2.123947E2,0E0,1.3398697E1,9.021985E1,6.659616E1,0E0,0E0,0E0,0E0,0E0,0E0,0E0,0E0,0E0,0E0,0E0,0E0,0E0,0E0],"parents":[2147483647,0,0,1,1,2,2,3,3,4,4,5,5,6,6,7,7,8,8,9,9,10,10,12,12,13,13,14,14],"right_children":[2,4,6,8,10,12,14,16,18,20,22,-1,24,26,28,-1,-1,-1,-1,-1,-1,-1,-1,-1,-1,-1,-1,-1,-1],"split_conditions":[3.2815666E0,1.5250211E0,-5.83261E-1,1E0,2.2357891E-1,6E0,1.2E1,9E0,1E1,3.0104556E0,7E0,-1.7292187E-1,-6.0683733E-1,1E0,1E0,-1.1972143E-2,1.572088E-2,9.576865E-2,-1.589319E-1,6.398492E-2,-1.951419E-1,1.9186456E-2,-5.745202E-2,-1.0352743E-1,1.7310849E-1,-1.4400743E-1,1.5856452E-1,-1.6516632E-1,6.405721E-2],"split_indices":[8,7,2,61,0,10,9,9,9,7,9,0,2,76,122,0,0,0,0,0,0,0,0,0,0,0,0,0,0],"split_type":[0,0,0,0,0,0,0,0,0,0,0,0,0,0,0,0,0,0,0,0,0,0,0,0,0,0,0,0,0],"sum_hessian":[2.8941568E4,2.8429875E4,5.1169373E2,2.4361361E4,4.0685142E3,4.7207294E1,4.6448645E2,2.3994143E4,3.672181E2,2.5019673E3,1.5665468E3,2.047885E1,2.6728447E1,4.079413E2,5.6545135E1,1.8030896E4,5.963246E3,3.6077924E2,6.4388766E0,2.4782778E3,2.3689472E1,1.00202203E3,5.645247E2,1.2359147E0,2.5492533E1,3.9862317E2,9.318129E0,1.7559546E1,3.8985588E1],"tree_param":{"num_deleted":"0","num_feature":"124","num_nodes":"29","size_leaf_vector":"1"}},{"base_weights":[1.9151244E-3,-3.6283605E-2,4.2707565E-1,-5.281776E-2,9.100597E-1,5.368286E-1,-7.292271E-2,-1.0285312E-1,2.9421628E-1,9.965399E-1,-1.877944E-1,6.0089886E-1,-1.5156356E-1,-1.8874979E-1,8.358943E-2,-1.2934876E-2,6.338478E-2,4.230685E-2,1.2358874E-2,1.0285536E-1,-1.4553374E-1,8.693698E-2,4.70423E-2,-2.0024744E-1,2.790353E-2,-8.077292E-2,3.372773E-2],"categories":[],"categories_nodes":[],"categories_segments":[],"categories_sizes":[],"default_left":[0,0,0,0,0,0,0,0,0,0,0,0,0,0,0,0,0,0,0,0,0,0,0,0,0,0,0],"id":5,"left_children":[1,3,5,7,9,11,13,15,17,19,-1,21,23,-1,25,-1,-1,-1,-1,-1,-1,-1,-1,-1,-1,-1,-1],"loss_changes":[4.6923462E2,4.1486322E2,1.3074759E2,4.5247604E2,1.11644806E2,8.6240845E1,1.2216803E2,4.446137E2,7.214206E1,3.6210358E1,0E0,6.2193176E1,1.3374893E2,0E0,8.9917274E1,0E0,0E0,0E0,0E0,0E0,0E0,0E0,0E0,0E0,0E0,0E0,0E0],"parents":[2147483647,0,0,1,1,2,2,3,3,4,4,5,5,6,6,7,7,8,8,9,9,11,11,12,12,14,14],"right_children":[2,4,6,8,10,12,14,16,18,20,-1,22,24,-1,26,-1,-1,-1,-1,-1,-1,-1,-1,-1,-1,-1,-1],"split_conditions":[1E0,1E0,9.9548787E-1,1E0,1.5219945E-1,1E0,2E0,1E0,1E0,1E1,-1.877944E-1,4E0,4.2908517E-1,-1.8874979E-1,2E0,-1.2934876E-2,6.338478E-2,4.230685E-2,1.2358874E-2,1.0285536E-1,-1.4553374E-1,8.693698E-2,4.70423E-2,-2.0024744E-1,2.790353E-2,-8.077292E-2,3.372773E-2],"split_indices":[56,61,8,24,2,13,9,45,122,9,0,9,6,0,10,0,0,0,0,0,0,0,0,0,0,0,0],"split_type":[0,0,0,0,0,0,0,0,0,0,0,0,0,0,0,0,0,0,0,0,0,0,0,0,0,0,0],"sum_hessian":[2.8890746E4,2.650987E4,2.380876E3,2.605558E4,4.5428906E2,1.9522671E3,4.2860898E2,2.277289E4,3.282691E3,4.412448E2,1.3044263E1,1.7861527E3,1.6611436E2,3.315506E1,3.9545392E2,2.1983088E4,7.89803E2,1.8694586E3,1.4132323E3,4.3613083E2,5.1139812E0,5.823104E2,1.2038423E3,3.0662495E1,1.3545187E2,8.7132965E1,3.0832095E2],"tree_param":{"num_deleted":"0","num_feature":"124","num_nodes":"27","size_leaf_vector":"1"}},{"base_weights":[-8.454235E-3,-6.449097E-2,3.2180354E-1,5.2006047E-2,-1.909566E-1,4.8118266E-1,-4.7026518E-1,1.5205719E-1,-1.4565039E-1,8.319384E-2,-2.7405238E-1,6.8340397E-1,3.2230115E-1,-1.9823895E-1,-9.508876E-1,5.8257123E-3,3.9603207E-2,9.683037E-3,-3.7249934E-2,1.2850128E-2,-1.0299925E-1,-2.4993999E-2,-1.0772532E-1,6.952439E-2,-1.8099129E-1,1.5120561E-3,5.4451685E-2,9.909782E-3,-1.2401032E-1,-1.1604269E-1,1.7517038E-1],"categories":[],"categories_nodes":[],"categories_segments":[],"categories_sizes":[],"default_left":[1,0,0,0,0,0,0,1,0,0,0,0,0,0,0,0,0,0,0,0,0,0,0,0,0,0,0,0,0,0,0],"id":6,"left_children":[1,3,5,7,9,11,13,15,17,19,21,23,25,27,29,-1,-1,-1,-1,-1,-1,-1,-1,-1,-1,-1,-1,-1,-1,-1,-1],"loss_changes":[5.3087866E2,3.6132742E2,5.2553955E2,2.5248326E2,2.6791058E2,1.1109741E2,9.1012634E1,1.9395647E2,2.3606183E2,1.3812485E2,1.7450665E2,4.6234253E1,1.3256378E2,1.3850723E2,1.4465779E2,0E0,0E0,0E0,0E0,0E0,0E0,0E0,0E0,0E0,0E0,0E0,0E0,0E0,0E0,0E0,0E0],"parents":[2147483647,0,0,1,1,2,2,3,3,4,4,5,5,6,6,7,7,8,8,9,9,10,10,11,11,12,12,13,13,14,14],"right_children":[2,4,6,8,10,12,14,16,18,20,22,24,26,28,30,-1,-1,-1,-1,-1,-1,-1,-1,-1,-1,-1,-1,-1,-1,-1,-1],"split_conditions":[1.5250211E0,-1.4755154E-1,9.0984637E-1,-1.414013E-1,1.1E1,-1.414013E-1,4.2396817E-1,3.9586652E-2,-3.3177197E-1,1E0,3.8530865E0,1E0,2.639097E0,2.820302E0,4.5393133E0,5.8257123E-3,3.9603207E-2,9.683037E-3,-3.7249934E-2,1.2850128E-2,-1.0299925E-1,-2.4993999E-2,-1.0772532E-1,6.952439E-2,-1.8099129E-1,1.5120561E-3,5.4451685E-2,9.909782E-3,-1.2401032E-1,-1.1604269E-1,1.7517038E-1],"split_indices":[7,8,0,0,11,0,8,7,7,32,8,43,7,0,4,0,0,0,0,0,0,0,0,0,0,0,0,0,0,0,0],"split_type":[0,0,0,0,0,0,0,0,0,0,0,0,0,0,0,0,0,0,0,0,0,0,0,0,0,0,0,0,0,0,0],"sum_hessian":[2.8683842E4,2.4523588E4,4.160253E3,1.2765195E4,1.1758394E4,3.4636865E3,6.9656635E2,8.475325E3,4.28987E3,2.7350122E3,9.023381E3,1.5225339E3,1.9411526E3,4.4571164E2,2.508547E2,6.122623E3,2.3527021E3,2.0737712E3,2.2160986E3,2.6288987E3,1.0611341E2,8.761664E3,2.617171E2,1.5160558E3,6.4780993E0,8.15253E2,1.1258995E3,3.4745627E2,9.825538E1,2.3333429E2,1.7520416E1],"tree_param":{"num_deleted":"0","num_feature":"124","num_nodes":"31","size_leaf_vector":"1"}},{"base_weights":[6.037871E-4,9.41864E-2,-1.7061499E-1,1.1759948E-1,-7.3440105E-1,-1.2966241E-1,-6.19841E-1,-8.137566E-2,1.9840953E-1,-4.4235903E-1,-1.4190593E0,-4.3018258E-1,-6.790373E-2,-1.229092E0,-2.3437479E-1,7.487589E-2,-1.2644763E-2,1.1346072E-2,4.2035382E-2,-2.3889842E-2,-1.716686E-1,-5.959766E-2,-1.6072036E-1,-2.172497E-2,-8.962136E-2,-1.8637044E-3,-4.843028E-2,-1.3751888E-1,3.4042142E-2,-4.327618E-2,6.7291945E-2],"categories":[],"categories_nodes":[],"categories_segments":[],"categories_sizes":[],"default_left":[0,0,0,0,0,1,0,0,0,0,0,0,0,0,0,0,0,0,0,0,0,0,0,0,0,0,0,0,0,0,0],"id":7,"left_children":[1,3,5,7,9,11,13,15,17,19,21,23,25,27,29,-1,-1,-1,-1,-1,-1,-1,-1,-1,-1,-1,-1,-1,-1,-1,-1],"loss_changes":[4.6122073E2,3.6115524E2,1.8706683E2,2.9107217E2,1.016658E2,1.7302345E2,1.9924341E2,1.9573885E2,2.4266779E2,9.294943E1,2.2661102E1,1.5751846E2,1.5868735E2,7.590961E1,9.4180664E1,0E0,0E0,0E0,0E0,0E0,0E0,0E0,0E0,0E0,0E0,0E0,0E0,0E0,0E0,0E0,0E0],"parents":[2147483647,0,0,1,1,2,2,3,3,4,4,5,5,6,6,7,7,8,8,9,9,10,10,11,11,12,12,13,13,14,14],"right_children":[2,4,6,8,10,12,14,16,18,20,22,24,26,28,30,-1,-1,-1,-1,-1,-1,-1,-1,-1,-1,-1,-1,-1,-1,-1,-1],"split_conditions":[-1.3210353E-1,2.710047E0,1.9472295E0,-6.8883294E-1,6.710685E0,-6.8883294E-1,9.294028E-1,-6.3346034E-1,4.1094527E-1,6.853781E-1,-7.429704E-1,-6.767268E-2,1.5670075E0,1E0,1E0,7.487589E-2,-1.2644763E-2,1.1346072E-2,4.2035382E-2,-2.3889842E-2,-1.716686E-1,-5.959766E-2,-1.6072036E-1,-2.172497E-2,-8.962136E-2,-1.8637044E-3,-4.843028E-2,-1.3751888E-1,3.4042142E-2,-4.327618E-2,6.7291945E-2],"split_indices":[1,8,1,4,8,4,4,2,7,6,1,0,8,22,56,0,0,0,0,0,0,0,0,0,0,0,0,0,0,0,0],"split_type":[0,0,0,0,0,0,0,0,0,0,0,0,0,0,0,0,0,0,0,0,0,0,0,0,0,0,0,0,0,0,0],"sum_hessian":[2.878273E4,1.8611008E4,1.0171723E4,1.810041E4,5.1059827E2,9.323094E3,8.486282E2,5.227919E3,1.2872491E4,3.5907877E2,1.515195E2,1.5883171E3,7.7347773E3,3.2800665E2,5.206215E2,2.6842682E2,4.959492E3,9.310445E3,3.5620464E3,3.1066507E2,4.84137E1,2.8966448E1,1.2255305E2,1.0912042E3,4.9711285E2,6.9173843E3,8.1739264E2,3.0018774E2,2.7818914E1,4.2763812E2,9.2983406E1],"tree_param":{"num_deleted":"0","num_feature":"124","num_nodes":"31","size_leaf_vector":"1"}},{"base_weights":[-8.547884E-3,-6.518738E-2,2.4225971E-1,1.0491108E-2,-2.472778E-1,3.5579368E-1,-3.11807E-1,3.0932616E-2,-7.227517E-1,-3.3224884E-1,8.318837E-2,1.983704E-1,6.181103E-1,6.1646774E-3,-9.2314357E-1,-8.809561E-4,3.3556487E-2,-4.9496774E-2,-1.6685724E-1,-2.6484689E-2,-8.1315316E-2,1.1964632E-2,-1.7847244E-1,4.2942245E-2,-1.1091569E-2,9.4335064E-2,3.834787E-2,7.668E-2,-1.880201E-2,-1.0906225E-1,1.4949387E-1],"categories":[],"categories_nodes":[],"categories_segments":[],"categories_sizes":[],"default_left":[0,0,0,0,0,0,0,0,0,0,0,0,0,0,0,0,0,0,0,0,0,0,0,0,0,0,0,0,0,0,0],"id":8,"left_children":[1,3,5,7,9,11,13,15,17,19,21,23,25,27,29,-1,-1,-1,-1,-1,-1,-1,-1,-1,-1,-1,-1,-1,-1,-1,-1],"loss_changes":[4.0711154E2,3.2216956E2,3.3222778E2,2.4757297E2,1.9276407E2,1.8084009E2,1.746436E2,1.9454572E2,9.568994E1,1.7676886E2,9.587292E1,1.9586162E2,1.2502435E2,8.7584404E1,1.2612158E2,0E0,0E0,0E0,0E0,0E0,0E0,0E0,0E0,0E0,0E0,0E0,0E0,0E0,0E0,0E0,0E0],"parents":[2147483647,0,0,1,1,2,2,3,3,4,4,5,5,6,6,7,7,8,8,9,9,10,10,11,11,12,12,13,13,14,14],"right_children":[2,4,6,8,10,12,14,16,18,20,22,24,26,28,30,-1,-1,-1,-1,-1,-1,-1,-1,-1,-1,-1,-1,-1,-1,-1,-1],"split_conditions":[1.1536626E0,-1.1829154E-1,8.318793E-1,2.710047E0,9E0,2.639097E0,4.2396817E-1,1E0,-2.301972E-1,8E0,3.1564069E0,-1.3883728E-1,-3.1180602E-1,1E1,1E0,-8.809561E-4,3.3556487E-2,-4.9496774E-2,-1.6685724E-1,-2.6484689E-2,-8.1315316E-2,1.1964632E-2,-1.7847244E-1,4.2942245E-2,-1.1091569E-2,9.4335064E-2,3.834787E-2,7.668E-2,-1.880201E-2,-1.0906225E-1,1.4949387E-1],"split_indices":[7,1,0,8,9,7,8,24,3,9,1,0,3,11,33,0,0,0,0,0,0,0,0,0,0,0,0,0,0,0,0],"split_type":[0,0,0,0,0,0,0,0,0,0,0,0,0,0,0,0,0,0,0,0,0,0,0,0,0,0,0,0,0,0,0],"sum_hessian":[2.865638E4,2.3377758E4,5.278623E3,1.6514938E4,6.862821E3,4.381223E3,8.973999E2,1.6067949E4,4.469881E2,5.459136E3,1.4036846E3,2.7391448E3,1.6420786E3,5.909972E2,3.0640274E2,1.4214503E4,1.853446E3,3.614602E2,8.552789E1,4.789418E3,6.6971814E2,1.37773E3,2.5954603E1,1.5676465E3,1.1714982E3,6.8689777E2,9.5518085E2,1.1959325E2,4.7140393E2,2.8706903E2,1.9333717E1],"tree_param":{"num_deleted":"0","num_feature":"124","num_nodes":"31","size_leaf_vector":"1"}},{"base_weights":[1.3613527E-2,-4.5331814E-3,6.3221115E-1,-5.648292E-2,2.2356567E-1,7.9389685E-1,-5.8245383E-2,2.5398562E-2,-2.2897267E-1,3.6150026E-1,-8.444142E-2,1.2452117E0,6.500659E-1,2.6389724E-1,-1.9932313E-1,4.25774E-3,-6.67853E-2,-2.5118018E-2,8.352505E-2,2.3613047E-2,5.962016E-2,7.744374E-3,-5.174438E-2,-1.7522988E-1,1.3575545E-1,2.1387914E-2,9.4180316E-2,-1.9823363E-2,1.5315531E-1],"categories":[],"categories_nodes":[],"categories_segments":[],"categories_sizes":[],"default_left":[0,1,0,0,0,0,0,0,0,0,0,0,0,0,0,0,0,0,0,0,0,0,0,0,0,0,0,0,0],"id":9,"left_children":[1,3,5,7,9,11,13,15,17,19,21,23,25,27,-1,-1,-1,-1,-1,-1,-1,-1,-1,-1,-1,-1,-1,-1,-1],"loss_changes":[3.2461673E2,3.3292194E2,9.205002E1,3.232073E2,2.2145221E2,4.2541443E1,9.8579475E1,1.8484015E2,1.7430243E2,1.0578461E2,1.13096954E2,5.636119E1,6.450943E1,7.9820526E1,0E0,0E0,0E0,0E0,0E0,0E0,0E0,0E0,0E0,0E0,0E0,0E0,0E0,0E0,0E0],"parents":[2147483647,0,0,1,1,2,2,3,3,4,4,5,5,6,6,7,7,8,8,9,9,10,10,11,11,12,12,13,13],"right_children":[2,4,6,8,10,12,14,16,18,20,22,24,26,28,-1,-1,-1,-1,-1,-1,-1,-1,-1,-1,-1,-1,-1,-1,-1],"split_conditions":[1E0,1.1536626E0,-4.8673573E-1,-1.3210353E-1,3.6818323E-1,-5.378894E-1,1.9E1,1E0,1E0,2.639097E0,9.2200285E-1,-7.5803804E-1,-4.230074E-1,1.8E1,-1.9932313E-1,4.25774E-3,-6.67853E-2,-2.5118018E-2,8.352505E-2,2.3613047E-2,5.962016E-2,7.744374E-3,-5.174438E-2,-1.7522988E-1,1.3575545E-1,2.1387914E-2,9.4180316E-2,-1.9823363E-2,1.5315531E-1],"split_indices":[45,7,5,1,2,2,11,37,61,7,1,1,2,11,0,0,0,0,0,0,0,0,0,0,0,0,0,0,0],"split_type":[0,0,0,0,0,0,0,0,0,0,0,0,0,0,0,0,0,0,0,0,0,0,0,0,0,0,0,0,0],"sum_hessian":[2.8916516E4,2.8093383E4,8.231334E2,2.28826E4,5.210782E3,6.668304E2,1.56303E2,1.5517325E4,7.365275E3,3.598911E3,1.6118713E3,1.5930466E2,5.0752576E2,1.3473543E2,2.1567566E1,1.5143019E4,3.743069E2,7.215471E3,1.4980371E2,2.3471477E3,1.2517633E3,1.1738347E3,4.3803656E2,5.2275014E0,1.5407715E2,2.041007E2,3.0342508E2,9.9357666E1,3.537776E1],"tree_param":{"num_deleted":"0","num_feature":"124","num_nodes":"29","size_leaf_vector":"1"}},{"base_weights":[1.49276E-3,-3.1999968E-2,3.7795568E-1,-7.191714E-2,3.2765132E-1,5.3753203E-1,-2.2515988E-2,-6.463088E-2,-1.8312262E-1,4.7263908E-1,-1.8992361E-1,5.8640873E-1,-5.2662843E-1,3.9171625E-2,-1.8133141E-1,-8.38402E-3,5.0801367E-2,2.4396075E-2,6.984328E-2,-9.296588E-2,2.5290543E-2,7.582589E-2,3.1511415E-2,-2.1010554E-1,5.3029962E-2,9.411393E-3,-1.8643259E-1],"categories":[],"categories_nodes":[],"categories_segments":[],"categories_sizes":[],"default_left":[0,0,0,0,0,0,0,0,0,0,0,0,0,0,0,0,0,0,0,0,0,0,0,0,0,0,0],"id":10,"left_children":[1,3,5,7,9,11,13,15,-1,17,19,21,23,25,-1,-1,-1,-1,-1,-1,-1,-1,-1,-1,-1,-1,-1],"loss_changes":[3.6119415E2,3.7767868E2,1.4957428E2,3.034149E2,1.9731244E2,8.735458E1,7.3843445E1,2.5944904E2,0E0,1.0585159E2,1.8886365E2,7.43811E1,1.242831E2,6.779283E1,0E0,0E0,0E0,0E0,0E0,0E0,0E0,0E0,0E0,0E0,0E0,0E0,0E0],"parents":[2147483647,0,0,1,1,2,2,3,3,4,4,5,5,6,6,7,7,9,9,10,10,11,11,12,12,13,13],"right_children":[2,4,6,8,10,12,14,16,-1,18,20,22,24,26,-1,-1,-1,-1,-1,-1,-1,-1,-1,-1,-1,-1,-1],"split_conditions":[1E0,1E0,4.2396817E-1,1E0,1.8252479E-1,1E0,1E0,1E0,-1.8312262E-1,-3.3177197E-1,-1.5194961E-1,3.9709993E-2,8E0,3.5900311E0,-1.8133141E-1,-8.38402E-3,5.0801367E-2,2.4396075E-2,6.984328E-2,-9.296588E-2,2.5290543E-2,7.582589E-2,3.1511415E-2,-2.1010554E-1,5.3029962E-2,9.411393E-3,-1.8643259E-1],"split_indices":[56,82,8,106,4,119,114,45,0,7,2,5,9,6,0,0,0,0,0,0,0,0,0,0,0,0,0],"split_type":[0,0,0,0,0,0,0,0,0,0,0,0,0,0,0,0,0,0,0,0,0,0,0,0,0,0,0],"sum_hessian":[2.8644305E4,2.6304951E4,2.339354E3,2.3677787E4,2.6271628E3,1.6725494E3,6.668046E2,2.3581162E4,9.662575E1,2.052332E3,5.7483093E2,1.5995321E3,7.301728E1,6.4554565E2,2.1258982E1,2.2816633E4,7.6452875E2,1.0206862E3,1.0316458E3,2.1484247E2,3.5998846E2,9.7813947E2,6.213927E2,2.893182E1,4.408546E1,6.283593E2,1.7186323E1],"tree_param":{"num_deleted":"0","num_feature":"124","num_nodes":"27","size_leaf_vector":"1"}},{"base_weights":[1.7483965E-3,1.0806156E-2,-1.3457959E0,2.6793938E-2,-7.687035E-1,-5.392125E-1,-1.507027E-1,2.1602526E-1,-2.848784E-2,-1.9133918E-1,-6.041595E-1,-1.4510624E-1,1.493414E0,2.7654437E-2,-1.5217575E-2,4.1381083E-3,-2.0911325E-2,-3.906321E-2,-1.5517536E-1,2.076071E-1,-1.0582594E-1],"categories":[],"categories_nodes":[],"categories_segments":[],"categories_sizes":[],"default_left":[0,0,0,0,0,0,0,0,0,0,0,0,0,0,0,0,0,0,0,0,0],"id":11,"left_children":[1,3,5,7,9,11,-1,13,15,-1,17,-1,19,-1,-1,-1,-1,-1,-1,-1,-1],"loss_changes":[3.4879034E2,3.5377182E2,2.3999695E1,2.909848E2,1.0630051E2,6.3965523E1,0E0,1.4017865E2,2.7168866E2,0E0,1.00617065E2,0E0,1.8281189E1,0E0,0E0,0E0,0E0,0E0,0E0,0E0,0E0],"parents":[2147483647,0,0,1,1,2,2,3,3,4,4,5,5,7,7,8,8,10,10,12,12],"right_children":[2,4,6,8,10,12,-1,14,16,-1,18,-1,20,-1,-1,-1,-1,-1,-1,-1,-1],"split_conditions":[6.710685E0,1E0,2E0,1.1E1,1E0,1.1536626E0,-1.507027E-1,1E0,4.2396817E-1,-1.9133918E-1,-3.5070896E-1,-1.4510624E-1,1.5250211E0,2.7654437E-2,-1.5217575E-2,4.1381083E-3,-2.0911325E-2,-3.906321E-2,-1.5517536E-1,2.076071E-1,-1.0582594E-1],"split_indices":[8,43,9,11,10,7,0,13,8,0,0,0,7,0,0,0,0,0,0,0,0],"split_type":[0,0,0,0,0,0,0,0,0,0,0,0,0,0,0,0,0,0,0,0,0],"sum_hessian":[2.8573754E4,2.8383957E4,1.8979587E2,2.7814447E4,5.695101E2,3.2342407E1,1.5745346E2,6.2878896E3,2.1526559E4,7.0240105E1,4.9927E2,2.2524073E1,9.818335E0,5.4004907E3,8.873989E2,1.5522836E4,6.0037217E3,4.08608E2,9.0661995E1,8.144893E0,1.673442E0],"tree_param":{"num_deleted":"0","num_feature":"124","num_nodes":"21","size_leaf_vector":"1"}},{"base_weights":[-5.3583435E-4,-4.164856E-2,3.0454063E-1,-7.673767E-2,3.0504376E-1,4.180708E-1,1.0127511E-1,-1.2162796E-1,2.7719015E-1,6.383438E-2,4.7878104E-1,4.3024164E-1,-1.9904403E-1,3.1676257E-1,-1.4076158E-1,-1.4127194E-2,7.860296E-2,3.976453E-2,-1.6084446E-2,-4.117555E-2,1.9293046E-2,3.4543887E-2,8.235047E-2,3.842177E-2,1.0073536E-1,4.3533456E-2,-2.0481208E-1,-3.5793334E-2,5.7478912E-2],"categories":[],"categories_nodes":[],"categories_segments":[],"categories_sizes":[],"default_left":[0,0,0,0,0,0,0,0,0,0,0,0,0,0,0,0,0,0,0,0,0,0,0,0,0,0,0,0,0],"id":12,"left_children":[1,3,5,7,9,11,13,15,17,19,21,23,-1,25,27,-1,-1,-1,-1,-1,-1,-1,-1,-1,-1,-1,-1,-1,-1],"loss_changes":[3.589597E2,3.068354E2,7.8390594E1,3.6392136E2,9.711842E1,6.477301E1,6.3640457E1,3.625262E2,1.3610275E2,5.974358E1,6.1651337E1,5.725821E1,0E0,1.8185547E2,8.9556984E1,0E0,0E0,0E0,0E0,0E0,0E0,0E0,0E0,0E0,0E0,0E0,0E0,0E0,0E0],"parents":[2147483647,0,0,1,1,2,2,3,3,4,4,5,5,6,6,7,7,8,8,9,9,10,10,11,11,13,13,14,14],"right_children":[2,4,6,8,10,12,14,16,18,20,22,24,-1,26,28,-1,-1,-1,-1,-1,-1,-1,-1,-1,-1,-1,-1,-1,-1],"split_conditions":[1E0,1E0,-2.6111615E-1,1E0,-3.3177197E-1,1E0,3E0,1E0,1.8252479E-1,1.2E1,1.5518012E0,1.4273216E0,-1.9904403E-1,2.2E1,2.6998746E-1,-1.4127194E-2,7.860296E-2,3.976453E-2,-1.6084446E-2,-4.117555E-2,1.9293046E-2,3.4543887E-2,8.235047E-2,3.842177E-2,1.0073536E-1,4.3533456E-2,-2.0481208E-1,-3.5793334E-2,5.7478912E-2],"split_indices":[24,56,5,82,7,91,10,61,4,11,4,4,0,11,2,0,0,0,0,0,0,0,0,0,0,0,0,0,0],"split_type":[0,0,0,0,0,0,0,0,0,0,0,0,0,0,0,0,0,0,0,0,0,0,0,0,0,0,0,0,0],"sum_hessian":[2.8617398E4,2.5219615E4,3.397783E3,2.2902416E4,2.3172004E3,2.1794407E3,1.2183424E3,2.032514E4,2.5772742E3,9.707794E2,1.3464209E3,2.1692998E3,1.0140689E1,6.443569E2,5.739855E2,1.9895398E4,4.2974176E2,2.0214797E3,5.5579456E2,2.0678694E2,7.6399243E2,9.7232074E2,3.741002E2,2.0106211E3,1.5867885E2,6.143692E2,2.9987713E1,4.4072418E2,1.3326132E2],"tree_param":{"num_deleted":"0","num_feature":"124","num_nodes":"29","size_leaf_vector":"1"}},{"base_weights":[2.1692084E-3,-2.8459365E-2,3.3735168E-1,-4.6219528E-2,5.360553E-1,4.3175164E-1,-4.7216728E-1,5.66699E-2,-1.634434E-1,6.256898E-1,-8.003922E-1,6.314859E-1,1.97198E-1,-2.018331E-1,-1.7906365E-1,8.026328E-3,-7.768208E-2,2.7522335E-2,-2.0491323E-2,7.681946E-2,1.3327861E-2,2.699154E-2,-2.0254467E-1,7.0615664E-2,-9.69829E-2,2.4713835E-2,-1.1551938E-1,-8.173333E-2,6.989819E-2],"categories":[],"categories_nodes":[],"categories_segments":[],"categories_sizes":[],"default_left":[0,0,0,0,0,0,0,0,0,0,0,0,0,0,0,0,0,0,0,0,0,0,0,0,0,0,0,0,0],"id":13,"left_children":[1,3,5,7,9,11,13,15,17,19,21,23,25,27,-1,-1,-1,-1,-1,-1,-1,-1,-1,-1,-1,-1,-1,-1,-1],"loss_changes":[2.927819E2,2.6201428E2,1.8267947E2,3.055798E2,9.598923E1,1.0008389E2,8.8691956E1,2.6540637E2,2.1549603E2,5.2355988E1,6.681485E1,1.387648E2,6.682503E1,1.1615518E2,0E0,0E0,0E0,0E0,0E0,0E0,0E0,0E0,0E0,0E0,0E0,0E0,0E0,0E0,0E0],"parents":[2147483647,0,0,1,1,2,2,3,3,4,4,5,5,6,6,7,7,8,8,9,9,10,10,11,11,12,12,13,13],"right_children":[2,4,6,8,10,12,14,16,18,20,22,24,26,28,-1,-1,-1,-1,-1,-1,-1,-1,-1,-1,-1,-1,-1,-1,-1],"split_conditions":[1E0,1E0,1.5670075E0,-1.4755154E-1,2.710047E0,-2.4071604E-1,-2.6111615E-1,1E0,8E0,-4.8673573E-1,2E0,1.0926014E0,1E0,-4.115292E-1,-1.7906365E-1,8.026328E-3,-7.768208E-2,2.7522335E-2,-2.0491323E-2,7.681946E-2,1.3327861E-2,2.699154E-2,-2.0254467E-1,7.0615664E-2,-9.69829E-2,2.4713835E-2,-1.1551938E-1,-8.173333E-2,6.989819E-2],"split_indices":[56,45,8,8,8,1,5,87,11,5,10,5,114,5,0,0,0,0,0,0,0,0,0,0,0,0,0,0,0],"split_type":[0,0,0,0,0,0,0,0,0,0,0,0,0,0,0,0,0,0,0,0,0,0,0,0,0,0,0,0,0],"sum_hessian":[2.8517186E4,2.6130342E4,2.3868442E3,2.533422E4,7.961203E2,2.1379941E3,2.4885E2,1.3492307E4,1.1841915E4,7.4657965E2,4.9540653E1,1.1537909E3,9.8420337E2,2.0746516E2,4.1384834E1,1.3121775E4,3.705306E2,1.0223099E3,1.08196045E4,5.7857794E2,1.6800166E2,2.685639E1,2.2684265E1,1.1029197E3,5.0871124E1,9.499418E2,3.426163E1,1.23306305E2,8.415887E1],"tree_param":{"num_deleted":"0","num_feature":"124","num_nodes":"29","size_leaf_vector":"1"}},{"base_weights":[1.3263786E-2,7.294131E-2,-1.3710706E-1,1.9521156E-2,2.9733357E-1,4.9538034E-1,-1.9303325E-1,6.685004E-2,-2.8705359E-1,7.123318E-1,1.8243146E-1,5.3313375E-1,-1.7700534E-1,-2.3968922E-1,4.7054797E-1,2.8309196E-2,1.6303491E-3,7.735765E-3,-4.602025E-2,-2.6762653E-2,7.914496E-2,5.3898998E-2,6.7701326E-3,5.712237E-2,-1.4136486E-1,-6.336782E-4,-3.2257177E-2,6.1252546E-2,-1.1645933E-1],"categories":[],"categories_nodes":[],"categories_segments":[],"categories_sizes":[],"default_left":[0,0,0,0,0,0,0,0,0,0,0,0,0,0,0,0,0,0,0,0,0,0,0,0,0,0,0,0,0],"id":14,"left_children":[1,3,5,7,9,11,13,15,17,19,21,23,-1,25,27,-1,-1,-1,-1,-1,-1,-1,-1,-1,-1,-1,-1,-1,-1],"loss_changes":[2.5832526E2,2.4702246E2,2.893985E2,2.4155437E2,1.8882303E2,5.779515E1,2.3277771E2,1.5762035E2,1.4051329E2,6.680371E1,1.2697059E2,4.9346985E1,0E0,1.3580942E2,1.1539792E2,0E0,0E0,0E0,0E0,0E0,0E0,0E0,0E0,0E0,0E0,0E0,0E0,0E0,0E0],"parents":[2147483647,0,0,1,1,2,2,3,3,4,4,5,5,6,6,7,7,8,8,9,9,10,10,11,11,13,13,14,14],"right_children":[2,4,6,8,10,12,14,16,18,20,22,24,-1,26,28,-1,-1,-1,-1,-1,-1,-1,-1,-1,-1,-1,-1,-1,-1],"split_conditions":[4.2396817E-1,1.027102E0,7E0,1E0,-4.8673573E-1,2.0522738E0,1E0,3E0,-1.11077674E-1,1E1,1.112533E0,4.9961257E0,-1.7700534E-1,1E0,2.710047E0,2.8309196E-2,1.6303491E-3,7.735765E-3,-4.602025E-2,-2.6762653E-2,7.914496E-2,5.3898998E-2,6.7701326E-3,5.712237E-2,-1.4136486E-1,-6.336782E-4,-3.2257177E-2,6.1252546E-2,-1.1645933E-1],"split_indices":[8,6,11,13,5,6,45,9,2,11,6,8,0,15,8,0,0,0,0,0,0,0,0,0,0,0,0,0,0],"split_type":[0,0,0,0,0,0,0,0,0,0,0,0,0,0,0,0,0,0,0,0,0,0,0,0,0,0,0,0,0],"sum_hessian":[2.8784621E4,2.0606896E4,8.1777236E3,1.6645303E4,3.9615933E3,6.637137E2,7.5140103E3,1.441994E4,2.2253625E3,8.578934E2,3.1037E3,6.5358636E2,1.0127333E1,7.0210063E3,4.9300363E2,2.7311736E3,1.1688768E4,7.1697076E2,1.5083918E3,6.39106E1,7.939828E2,7.5466205E2,2.3490378E3,6.41737E2,1.1849395E1,1.840429E3,5.1805776E3,4.5419205E2,3.8811592E1],"tree_param":{"num_deleted":"0","num_feature":"124","num_nodes":"29","size_leaf_vector":"1"}},{"base_weights":[2.307458E-4,1.3650788E-2,-5.7853055E-1,3.244987E-1,-1.2780057E-2,-8.205332E-1,4.501651E-1,1.897214E-1,7.281127E-1,-2.336296E-2,7.036156E-1,-4.349259E-1,-1.3177333E0,-5.918089E-1,1.1658877E0,3.1724405E-2,-3.59787E-2,9.075673E-2,-1.2817681E-2,-1.5651932E-3,-1.1502134E-1,-2.2384551E-1,7.889611E-2,-6.2225442E-2,1.2227756E-1,-1.5610282E-1,5.5162128E-2,6.851608E-2,-1.8403189E-1,1.4383952E-1,-1.589629E-1],"categories":[],"categories_nodes":[],"categories_segments":[],"categories_sizes":[],"default_left":[0,0,0,0,0,0,0,0,0,0,0,0,0,0,0,0,0,0,0,0,0,0,0,0,0,0,0,0,0,0,0],"id":15,"left_children":[1,3,5,7,9,11,13,15,17,19,21,23,25,27,29,-1,-1,-1,-1,-1,-1,-1,-1,-1,-1,-1,-1,-1,-1,-1,-1],"loss_changes":[2.2134001E2,2.2883264E2,1.6114226E2,1.1859273E2,1.9463492E2,9.973151E1,9.2895996E1,1.1486851E2,8.402258E1,2.1979471E2,9.560446E1,9.272415E1,1.0456882E2,8.258431E1,5.7576004E1,0E0,0E0,0E0,0E0,0E0,0E0,0E0,0E0,0E0,0E0,0E0,0E0,0E0,0E0,0E0,0E0],"parents":[2147483647,0,0,1,1,2,2,3,3,4,4,5,5,6,6,7,7,8,8,9,9,10,10,11,11,12,12,13,13,14,14],"right_children":[2,4,6,8,10,12,14,16,18,20,22,24,26,28,30,-1,-1,-1,-1,-1,-1,-1,-1,-1,-1,-1,-1,-1,-1,-1,-1],"split_conditions":[1E0,8E0,6E0,1.1536626E0,1E0,-1.1070307E-1,7.7080905E-1,4.2908517E-1,4.9372396E-1,3.8302114E0,3E0,2.360919E0,1E0,1.2E1,1E0,3.1724405E-2,-3.59787E-2,9.075673E-2,-1.2817681E-2,-1.5651932E-3,-1.1502134E-1,-2.2384551E-1,7.889611E-2,-6.2225442E-2,1.2227756E-1,-1.5610282E-1,5.5162128E-2,6.851608E-2,-1.8403189E-1,1.4383952E-1,-1.589629E-1],"split_indices":[23,11,10,7,61,5,6,6,4,0,9,4,114,11,13,0,0,0,0,0,0,0,0,0,0,0,0,0,0,0,0],"split_type":[0,0,0,0,0,0,0,0,0,0,0,0,0,0,0,0,0,0,0,0,0,0,0,0,0,0,0,0,0,0,0],"sum_hessian":[2.8495469E4,2.7850658E4,6.448114E2,2.1816326E3,2.5669025E4,5.221718E2,1.226396E2,1.6365991E3,5.4503345E2,2.5296305E4,3.7272046E2,2.9514478E2,2.2702704E2,5.0008545E1,7.263106E1,1.3286794E3,3.0791965E2,4.5055063E2,9.448281E1,2.5125387E4,1.7091895E2,9.796112E0,3.6292435E2,2.657395E2,2.9405264E1,2.0102832E2,2.599873E1,2.4945564E1,2.506298E1,6.6529594E1,6.1014657E0],"tree_param":{"num_deleted":"0","num_feature":"124","num_nodes":"31","size_leaf_vector":"1"}},{"base_weights":[6.998638E-3,2.0881768E-1,-3.8949262E-2,3.7246203E-1,-1.5868278E-2,-1.0839472E-1,1.2633246E-1,4.6900073E-1,5.1224295E-2,2.2676824E-2,-1.7079191E-1,-1.4551687E-1,3.1980574E-1,1.9178979E-1,-1.8130119E-1,4.9451146E-2,-7.140577E-2,1.2166796E-2,-1.8688582E-1,-3.33552E-3,8.50304E-2,-1.275897E-2,-1.1957407E-1,3.732383E-2,-1.7022082E-1,1.1926562E-2,5.192559E-2,-2.8788729E-2,1.1838271E-1],"categories":[],"categories_nodes":[],"categories_segments":[],"categories_sizes":[],"default_left":[0,0,0,0,0,1,0,0,0,0,0,0,0,0,0,0,0,0,0,0,0,0,0,0,0,0,0,0,0],"id":16,"left_children":[1,3,5,7,9,11,13,15,17,19,-1,21,23,25,27,-1,-1,-1,-1,-1,-1,-1,-1,-1,-1,-1,-1,-1,-1],"loss_changes":[2.65025E2,1.9488167E2,2.6722134E2,9.507797E1,1.4576895E2,2.606236E2,1.3873651E2,7.151544E1,9.6226715E1,1.0138495E2,0E0,2.8387622E2,1.4196346E2,1.3483287E2,1.7625142E2,0E0,0E0,0E0,0E0,0E0,0E0,0E0,0E0,0E0,0E0,0E0,0E0,0E0,0E0],"parents":[2147483647,0,0,1,1,2,2,3,3,4,4,5,5,6,6,7,7,8,8,9,9,11,11,12,12,13,13,14,14],"right_children":[2,4,6,8,10,12,14,16,18,20,-1,22,24,26,28,-1,-1,-1,-1,-1,-1,-1,-1,-1,-1,-1,-1,-1,-1],"split_conditions":[3E0,-1.4755154E-1,9E0,1.9E1,1.4236294E0,1.8630004E0,5.6615573E-1,1E0,1E0,1E0,-1.7079191E-1,1E0,4.4898925E0,1E0,4.025656E0,4.9451146E-2,-7.140577E-2,1.2166796E-2,-1.8688582E-1,-3.33552E-3,8.50304E-2,-1.275897E-2,-1.1957407E-1,3.732383E-2,-1.7022082E-1,1.1926562E-2,5.192559E-2,-2.8788729E-2,1.1838271E-1],"split_indices":[9,8,9,11,1,4,5,120,43,86,0,43,1,97,5,0,0,0,0,0,0,0,0,0,0,0,0,0,0],"split_type":[0,0,0,0,0,0,0,0,0,0,0,0,0,0,0,0,0,0,0,0,0,0,0,0,0,0,0,0,0],"sum_hessian":[2.8577912E4,5.2990615E3,2.3278852E4,3.06563E3,2.2334316E3,1.6391904E4,6.886947E3,2.3568782E3,7.087516E2,2.1846516E3,4.8780006E1,1.5084812E4,1.3070934E3,5.6789697E3,1.2079769E3,2.3076985E3,4.917975E1,6.8457275E2,2.4178856E1,2.0470238E3,1.3762793E2,1.483274E4,2.5207127E2,1.2742366E3,3.2856796E1,4.6504053E3,1.0285647E3,1.1212235E3,8.675346E1],"tree_param":{"num_deleted":"0","num_feature":"124","num_nodes":"29","size_leaf_vector":"1"}},{"base_weights":[7.575531E-3,8.017976E-2,-1.2768956E-1,1.3079523E-2,2.724564E-1,-2.2965246E-1,1.7646278E-1,-4.1767856E-1,3.5800923E-2,2.2704391E-1,7.70999E-1,-1.9093768E-1,-9.6845216E-1,6.169823E-1,5.7614658E-2,-1.3044486E-2,-1.17098145E-1,7.2041983E-3,-2.9240096E-2,2.4423424E-2,-9.6709184E-2,9.0325676E-2,-2.0387478E-1,-2.450446E-2,2.8793586E-2,-1.041156E-1,1.7899112E-1,6.900168E-2,-1.7964785E-1,7.222365E-2,-9.194123E-4],"categories":[],"categories_nodes":[],"categories_segments":[],"categories_sizes":[],"default_left":[0,1,1,0,0,0,0,0,0,0,0,0,0,0,0,0,0,0,0,0,0,0,0,0,0,0,0,0,0,0,0],"id":17,"left_children":[1,3,5,7,9,11,13,15,17,19,21,23,25,27,29,-1,-1,-1,-1,-1,-1,-1,-1,-1,-1,-1,-1,-1,-1,-1,-1],"loss_changes":[2.79856E2,2.3923514E2,3.0870935E2,1.3456311E2,1.0842914E2,2.1303613E2,1.3082483E2,1.4890048E2,1.5535188E2,9.0515045E1,1.5050937E2,1.8363766E2,7.6253815E1,9.4829636E1,8.7458664E1,0E0,0E0,0E0,0E0,0E0,0E0,0E0,0E0,0E0,0E0,0E0,0E0,0E0,0E0,0E0,0E0],"parents":[2147483647,0,0,1,1,2,2,3,3,4,4,5,5,6,6,7,7,8,8,9,9,10,10,11,11,12,12,13,13,14,14],"right_children":[2,4,6,8,10,12,14,16,18,20,22,24,26,28,30,-1,-1,-1,-1,-1,-1,-1,-1,-1,-1,-1,-1,-1,-1,-1,-1],"split_conditions":[-1.3210353E-1,4.1094527E-1,9.9164265E-1,-7.775004E-1,1E0,1.9472295E0,-5.619423E-1,4.2396817E-1,1E0,1E0,7.1656877E-1,1E0,1E0,1E0,-2.6262808E-1,-1.3044486E-2,-1.17098145E-1,7.2041983E-3,-2.9240096E-2,2.4423424E-2,-9.6709184E-2,9.0325676E-2,-2.0387478E-1,-2.450446E-2,2.8793586E-2,-1.041156E-1,1.7899112E-1,6.900168E-2,-1.7964785E-1,7.222365E-2,-9.194123E-4],"split_indices":[1,7,4,1,82,1,5,8,13,23,5,82,57,119,3,0,0,0,0,0,0,0,0,0,0,0,0,0,0,0,0],"split_type":[0,0,0,0,0,0,0,0,0,0,0,0,0,0,0,0,0,0,0,0,0,0,0,0,0,0,0,0,0,0,0],"sum_hessian":[2.8494158E4,1.8542033E4,9.952125E3,1.3746042E4,4.7959917E3,7.453639E3,2.4984856E3,6.878687E2,1.3058174E4,4.3969287E3,3.9906317E2,7.083696E3,3.699433E2,5.299595E2,1.9685261E3,4.9883612E2,1.8903262E2,1.1760341E4,1.2978324E3,4.3353145E3,6.161408E1,3.817713E2,1.7291855E1,6.365014E3,7.1868134E2,3.6104944E2,8.893844E0,5.150864E2,1.48730955E1,1.7890884E2,1.7896172E3],"tree_param":{"num_deleted":"0","num_feature":"124","num_nodes":"31","size_leaf_vector":"1"}},{"base_weights":[1.8915883E-3,1.3253579E-2,-6.8866366E-1,-2.7249869E-2,1.9708303E-1,3.2691762E-1,-9.043734E-1,4.6217084E-2,-1.8049003E-1,2.8535548E-1,-9.164842E-2,9.6359915E-1,-1.4227754E-1,-1.3068366E0,-4.3117103E-1,-8.679329E-3,2.154182E-2,-2.5092885E-2,3.0203668E-2,3.0695006E-2,-7.1979806E-2,-6.749545E-2,1.8200535E-2,1.4914455E-1,-7.831462E-3,4.003895E-2,-1.4532766E-1,9.172331E-3,-1.402285E-1],"categories":[],"categories_nodes":[],"categories_segments":[],"categories_sizes":[],"default_left":[0,0,0,0,0,0,0,1,0,0,0,0,0,0,0,0,0,0,0,0,0,0,0,0,0,0,0,0,0],"id":18,"left_children":[1,3,5,7,9,11,13,15,17,19,21,23,-1,25,27,-1,-1,-1,-1,-1,-1,-1,-1,-1,-1,-1,-1,-1,-1],"loss_changes":[2.2400673E2,2.0913968E2,1.0153781E2,2.5914062E2,1.2928105E2,9.23816E1,7.208157E1,3.501858E2,2.5360568E2,8.453113E1,1.8978546E2,3.3388252E1,0E0,5.1992615E1,8.9910034E1,0E0,0E0,0E0,0E0,0E0,0E0,0E0,0E0,0E0,0E0,0E0,0E0,0E0,0E0],"parents":[2147483647,0,0,1,1,2,2,3,3,4,4,5,5,6,6,7,7,8,8,9,9,10,10,11,11,13,13,14,14],"right_children":[2,4,6,8,10,12,14,16,18,20,22,24,-1,26,28,-1,-1,-1,-1,-1,-1,-1,-1,-1,-1,-1,-1,-1,-1],"split_conditions":[3.2815666E0,1.027102E0,-8.627684E-1,-1.3669188E-1,5.741917E-1,-3.8009164E-1,7E0,-3.3177197E-1,1E0,2.7471452E0,9.294028E-1,1.4E1,-1.4227754E-1,-5.448418E-1,4.9961257E0,-8.679329E-3,2.154182E-2,-2.5092885E-2,3.0203668E-2,3.0695006E-2,-7.1979806E-2,-6.749545E-2,1.8200535E-2,1.4914455E-1,-7.831462E-3,4.003895E-2,-1.4532766E-1,9.172331E-3,-1.402285E-1],"split_indices":[8,6,5,0,1,1,9,7,82,5,4,11,0,0,8,0,0,0,0,0,0,0,0,0,0,0,0,0,0],"split_type":[0,0,0,0,0,0,0,0,0,0,0,0,0,0,0,0,0,0,0,0,0,0,0,0,0,0,0,0,0],"sum_hessian":[2.8547975E4,2.8086832E4,4.6114343E2,2.3016434E4,5.0703975E3,8.069735E1,3.8044608E2,1.5558175E4,7.4582583E3,3.8832134E3,1.1871843E3,5.9496815E1,2.1200535E1,2.0463791E2,1.7580818E2,8.71093E3,6.8472456E3,6.508616E3,9.4964215E2,3.8022214E3,8.0991776E1,3.7863635E2,8.08548E2,3.920409E1,2.029272E1,1.602943E1,1.8860847E2,1.1486493E2,6.094325E1],"tree_param":{"num_deleted":"0","num_feature":"124","num_nodes":"29","size_leaf_vector":"1"}},{"base_weights":[-4.3390237E-4,3.0751222E-1,-2.7170772E-2,1.2830871E-1,5.699492E-1,-5.158068E-2,3.0112565E-1,1.9595261E-1,-1.3882192E0,6.032883E-1,-1.701811E-1,3.5045933E-2,-1.4914908E-1,3.4125063E-1,-1.9241574E-1,-7.4795424E-3,4.7074232E-2,-1.9393866E-1,4.113469E-3,5.0277602E-2,1.18976645E-1,1.0338369E-2,-1.3743318E-2,-1.2637511E-2,-5.604313E-2,4.3245036E-2,-5.2464884E-2],"categories":[],"categories_nodes":[],"categories_segments":[],"categories_sizes":[],"default_left":[0,0,0,0,0,0,0,0,0,0,0,0,0,0,0,0,0,0,0,0,0,0,0,0,0,0,0],"id":19,"left_children":[1,3,5,7,9,11,13,15,17,19,-1,21,23,25,-1,-1,-1,-1,-1,-1,-1,-1,-1,-1,-1,-1,-1],"loss_changes":[2.3311253E2,1.06299255E2,2.0877849E2,1.3828162E2,7.051529E1,2.0495612E2,1.6165059E2,9.591777E1,4.543358E1,5.274704E1,0E0,1.5142094E2,1.0674823E2,1.4015894E2,0E0,0E0,0E0,0E0,0E0,0E0,0E0,0E0,0E0,0E0,0E0,0E0,0E0],"parents":[2147483647,0,0,1,1,2,2,3,3,4,4,5,5,6,6,7,7,8,8,9,9,11,11,12,12,13,13],"right_children":[2,4,6,8,10,12,14,16,18,20,-1,22,24,26,-1,-1,-1,-1,-1,-1,-1,-1,-1,-1,-1,-1,-1],"split_conditions":[8E0,-1.207332E-1,2.639097E0,-1.3883728E-1,3.1231778E0,-1.4755154E-1,1E0,-3.3177197E-1,6.4136225E-1,1E0,-1.701811E-1,-6.767268E-2,1.1473895E0,2.2656367E0,-1.9241574E-1,-7.4795424E-3,4.7074232E-2,-1.9393866E-1,4.113469E-3,5.0277602E-2,1.18976645E-1,1.0338369E-2,-1.3743318E-2,-1.2637511E-2,-5.604313E-2,4.3245036E-2,-5.2464884E-2],"split_indices":[11,2,7,0,5,8,59,7,5,94,0,0,1,0,0,0,0,0,0,0,0,0,0,0,0,0,0],"split_type":[0,0,0,0,0,0,0,0,0,0,0,0,0,0,0,0,0,0,0,0,0,0,0,0,0,0,0],"sum_hessian":[2.8310623E4,2.2608162E3,2.6049809E4,1.3443345E3,9.164817E2,2.4247752E4,1.8020563E3,1.2877653E3,5.656926E1,9.0395026E2,1.2531433E1,1.2844412E4,1.1403339E4,1.7709698E3,3.1086443E1,6.490195E2,6.387457E2,4.056885E1,1.6000412E1,7.732806E2,1.3066966E2,9.199779E3,3.6446333E3,1.080627E4,5.970691E2,1.6026713E3,1.6829865E2],"tree_param":{"num_deleted":"0","num_feature":"124","num_nodes":"27","size_leaf_vector":"1"}},{"base_weights":[2.1220404E-3,1.3601446E-1,-5.152715E-2,1.5594527E-1,-1.0050722E0,-1.2592669E-1,9.5612854E-2,1.7843919E-1,-7.988563E-1,-1.7144528E-1,-1.806294E-1,2.970671E-1,-1.6325185E-1,4.146427E-1,1.2917881E-3,1.912372E-2,-1.3778414E-1,-1.0466265E-1,1.2425323E-1,1.3127588E-1,-1.5966277E-1,3.7903428E-2,-1.3285837E-1,-2.0320863E-2,2.372044E-2,4.5166727E-2,-1.8246484E-1,1.2617104E-3,-1.9131479E-1],"categories":[],"categories_nodes":[],"categories_segments":[],"categories_sizes":[],"default_left":[0,0,0,0,0,0,0,0,0,0,0,0,0,0,0,0,0,0,0,0,0,0,0,0,0,0,0,0,0],"id":20,"left_children":[1,3,5,7,9,11,13,15,17,-1,19,21,23,25,27,-1,-1,-1,-1,-1,-1,-1,-1,-1,-1,-1,-1,-1,-1],"loss_changes":[2.037502E2,1.8469551E2,2.2169833E2,1.7143948E2,8.123369E1,2.1240564E2,2.0465956E2,1.5547867E2,9.4243484E1,0E0,1.4082E2,1.4587613E2,1.9782465E2,1.2949573E2,1.1386037E2,0E0,0E0,0E0,0E0,0E0,0E0,0E0,0E0,0E0,0E0,0E0,0E0,0E0,0E0],"parents":[2147483647,0,0,1,1,2,2,3,3,4,4,5,5,6,6,7,7,8,8,10,10,11,11,12,12,13,13,14,14],"right_children":[2,4,6,8,10,12,14,16,18,-1,20,22,24,26,28,-1,-1,-1,-1,-1,-1,-1,-1,-1,-1,-1,-1,-1,-1],"split_conditions":[4E0,1.956908E0,9E0,1E0,1.1967611E0,8E0,1E1,1E0,2.3E1,-1.7144528E-1,8.7679994E-1,1E0,1E0,1E0,1E0,1.912372E-2,-1.3778414E-1,-1.0466265E-1,1.2425323E-1,1.3127588E-1,-1.5966277E-1,3.7903428E-2,-1.3285837E-1,-2.0320863E-2,2.372044E-2,4.5166727E-2,-1.8246484E-1,1.2617104E-3,-1.9131479E-1],"split_indices":[9,0,9,37,3,11,9,112,11,0,1,107,82,85,16,0,0,0,0,0,0,0,0,0,0,0,0,0,0],"split_type":[0,0,0,0,0,0,0,0,0,0,0,0,0,0,0,0,0,0,0,0,0,0,0,0,0,0,0,0,0],"sum_hessian":[2.8362768E4,8.113171E3,2.0249596E4,7.974743E3,1.384276E2,1.3449278E4,6.8003184E3,7.791987E3,1.8275632E2,7.382573E1,6.460187E1,1.0899762E3,1.2359302E4,1.5509653E3,5.249353E3,7.7293027E3,6.2684486E1,1.6341E2,1.9346312E1,3.1477213E1,3.3124657E1,1.0383864E3,5.1589783E1,1.1238443E4,1.1208583E3,1.526524E3,2.4441343E1,5.219469E3,2.9883585E1],"tree_param":{"num_deleted":"0","num_feature":"124","num_nodes":"29","size_leaf_vector":"1"}},{"base_weights":[8.295724E-3,-1.9082205E-2,3.0784526E-1,-4.9794126E-2,1.7382348E-1,3.2220805E-1,-1.9396596E-1,-3.614703E-2,-7.0893836E-1,3.9950207E-1,7.311592E-3,4.7664458E-1,1.5268837E-1,-5.185816E-3,4.2287014E-2,-1.6121018E-1,-3.7576433E-2,5.3427774E-2,-6.7049745E-3,1.4095681E-2,-3.616941E-2,3.480707E-2,9.493977E-2,-8.946567E-3,5.800868E-2],"categories":[],"categories_nodes":[],"categories_segments":[],"categories_sizes":[],"default_left":[0,0,0,0,0,0,0,0,0,0,1,0,0,0,0,0,0,0,0,0,0,0,0,0,0],"id":21,"left_children":[1,3,5,7,9,11,-1,13,15,17,19,21,23,-1,-1,-1,-1,-1,-1,-1,-1,-1,-1,-1,-1],"loss_changes":[2.330562E2,1.5427296E2,7.744589E1,2.0203807E2,1.3439023E2,6.1857254E1,0E0,1.5873936E2,1.3648676E2,9.5512115E1,1.0159077E2,7.488147E1,1.1691725E2,0E0,0E0,0E0,0E0,0E0,0E0,0E0,0E0,0E0,0E0,0E0,0E0],"parents":[2147483647,0,0,1,1,2,2,3,3,4,4,5,5,7,7,8,8,9,9,10,10,11,11,12,12],"right_children":[2,4,6,8,10,12,-1,14,16,18,20,22,24,-1,-1,-1,-1,-1,-1,-1,-1,-1,-1,-1,-1],"split_conditions":[1E0,1.5250211E0,1E0,1.9472295E0,1.7419837E-3,-2.301972E-1,-1.9396596E-1,1E0,1.7279224E-1,1.9E1,4.2396817E-1,-2.91869E-1,6.9169015E-1,-5.185816E-3,4.2287014E-2,-1.6121018E-1,-3.7576433E-2,5.3427774E-2,-6.7049745E-3,1.4095681E-2,-3.616941E-2,3.480707E-2,9.493977E-2,-8.946567E-3,5.800868E-2],"split_indices":[56,7,90,1,2,3,0,45,6,11,8,3,3,0,0,0,0,0,0,0,0,0,0,0,0],"split_type":[0,0,0,0,0,0,0,0,0,0,0,0,0,0,0,0,0,0,0,0,0,0,0,0,0],"sum_hessian":[2.8416146E4,2.6037348E4,2.378799E3,2.2461984E4,3.575362E3,2.364545E3,1.4254098E1,2.2007393E4,4.545921E2,1.5173934E3,2.0579688E3,1.2363702E3,1.1281748E3,2.1279916E4,7.274768E2,1.21471176E2,3.331209E2,1.1771871E3,3.4020636E2,1.511248E3,5.4672064E2,9.733784E2,2.629918E2,7.206576E2,4.0751718E2],"tree_param":{"num_deleted":"0","num_feature":"124","num_nodes":"25","size_leaf_vector":"1"}},{"base_weights":[-1.5287966E-6,-4.2800985E-2,1.9154312E-1,1.00984775E-1,-1.01221934E-1,5.615488E-1,1.23815514E-1,8.4904484E-2,8.165861E-1,-7.778295E-2,-6.283351E-1,2.2107784E-1,8.370993E-1,-5.937044E-1,1.5317759E-1,1.2492185E-2,-3.1520505E-2,9.427633E-2,-1.6244617E-1,-1.4408325E-2,5.477374E-3,-8.3337836E-2,3.7882936E-3,6.2257923E-2,-1.0415387E-1,9.091704E-2,-1.7973962E-1,4.3932762E-2,-1.0702449E-1,8.752339E-2,1.2523571E-2],"categories":[],"categories_nodes":[],"categories_segments":[],"categories_sizes":[],"default_left":[1,0,0,1,0,0,0,0,0,0,0,0,0,0,0,0,0,0,0,0,0,0,0,0,0,0,0,0,0,0,0],"id":22,"left_children":[1,3,5,7,9,11,13,15,17,19,21,23,25,27,29,-1,-1,-1,-1,-1,-1,-1,-1,-1,-1,-1,-1,-1,-1,-1,-1],"loss_changes":[2.3137515E2,1.9379024E2,1.29102E2,7.663063E1,2.0262633E2,7.4610504E1,9.1911514E1,1.04434654E2,4.66147E1,1.3805014E2,9.5414825E1,1.8212071E2,8.522983E1,8.4917755E1,8.438138E1,0E0,0E0,0E0,0E0,0E0,0E0,0E0,0E0,0E0,0E0,0E0,0E0,0E0,0E0,0E0,0E0],"parents":[2147483647,0,0,1,1,2,2,3,3,4,4,5,5,6,6,7,7,8,8,9,9,10,10,11,11,12,12,13,13,14,14],"right_children":[2,4,6,8,10,12,14,16,18,20,22,24,26,28,30,-1,-1,-1,-1,-1,-1,-1,-1,-1,-1,-1,-1,-1,-1,-1,-1],"split_conditions":[1.027102E0,4E0,-3.2509738E-1,3.1983843E0,1.0306193E0,-3.403261E-1,-3.1539392E-1,3.8229156E-1,1E0,9E0,8.851288E-1,-4.1016194E-1,1E0,1E0,-1.0131814E0,1.2492185E-2,-3.1520505E-2,9.427633E-2,-1.6244617E-1,-1.4408325E-2,5.477374E-3,-8.3337836E-2,3.7882936E-3,6.2257923E-2,-1.0415387E-1,9.091704E-2,-1.7973962E-1,4.3932762E-2,-1.0702449E-1,8.752339E-2,1.2523571E-2],"split_indices":[6,9,3,5,3,2,4,2,107,9,2,3,14,15,5,0,0,0,0,0,0,0,0,0,0,0,0,0,0,0,0],"split_type":[0,0,0,0,0,0,0,0,0,0,0,0,0,0,0,0,0,0,0,0,0,0,0,0,0,0,0,0,0,0,0],"sum_hessian":[2.8221344E4,2.3067771E4,5.153573E3,6.66446E3,1.640331E4,7.9625037E2,4.3573228E3,6.519088E3,1.4537192E2,1.5706062E4,6.972491E2,3.5697424E2,4.3927615E2,1.7054323E2,4.1867793E3,5.9269824E3,5.9210547E2,1.3881062E2,6.5613027E0,1.0469495E4,5.236567E3,5.329662E2,1.6428293E2,2.7123175E2,8.574249E1,4.2821646E2,1.1059697E1,5.3861588E1,1.1668164E2,1.5485262E2,4.0319268E3],"tree_param":{"num_deleted":"0","num_feature":"124","num_nodes":"31","size_leaf_vector":"1"}},{"base_weights":[5.2531236E-3,6.0677275E-2,-9.784971E-2,8.426429E-3,2.1395338E-1,1.1023782E-1,-1.7959307E-1,1.8773066E-2,-1.3077875E0,2.5088912E-1,-1.1146609E0,-1.7775987E-1,1.3307254E-1,-1.5683809E-1,-1.1367908E0,-1.5021012E-3,2.991938E-2,-1.8976979E-1,-7.763756E-3,4.5111623E-2,1.5968166E-2,-1.9924234E-1,-5.4302704E-2,1.5946722E-2,-1.13207914E-1,-3.1186698E-2,-1.1629851E-3,1.2443115E-1,-1.2861632E-1],"categories":[],"categories_nodes":[],"categories_segments":[],"categories_sizes":[],"default_left":[0,1,0,0,0,0,0,0,0,0,0,0,0,1,0,0,0,0,0,0,0,0,0,0,0,0,0,0,0],"id":23,"left_children":[1,3,5,7,9,11,13,15,17,19,21,-1,23,25,27,-1,-1,-1,-1,-1,-1,-1,-1,-1,-1,-1,-1,-1,-1],"loss_changes":[1.616908E2,1.473819E2,1.6829141E2,1.8694032E2,2.298671E2,1.20539566E2,1.5453055E2,1.2906754E2,7.754782E1,8.307077E1,6.2504852E1,0E0,9.2289215E1,1.5620683E2,6.020546E1,0E0,0E0,0E0,0E0,0E0,0E0,0E0,0E0,0E0,0E0,0E0,0E0,0E0,0E0],"parents":[2147483647,0,0,1,1,2,2,3,3,4,4,5,5,6,6,7,7,8,8,9,9,10,10,12,12,13,13,14,14],"right_children":[2,4,6,8,10,12,14,16,18,20,22,-1,24,26,28,-1,-1,-1,-1,-1,-1,-1,-1,-1,-1,-1,-1,-1,-1],"split_conditions":[-1.3210353E-1,4.1094527E-1,1E0,1E0,9.442256E-1,-5.178218E-1,1E0,1E0,1E0,-3.5719982E-1,1.027102E0,-1.7775987E-1,1E0,-8.350067E-2,-5.2925235E-1,-1.5021012E-3,2.991938E-2,-1.8976979E-1,-7.763756E-3,4.5111623E-2,1.5968166E-2,-1.9924234E-1,-5.4302704E-2,1.5946722E-2,-1.13207914E-1,-3.1186698E-2,-1.1629851E-3,1.2443115E-1,-1.2861632E-1],"split_indices":[1,7,92,33,3,3,23,24,97,2,6,0,86,6,3,0,0,0,0,0,0,0,0,0,0,0,0,0,0],"split_type":[0,0,0,0,0,0,0,0,0,0,0,0,0,0,0,0,0,0,0,0,0,0,0,0,0,0,0,0,0],"sum_hessian":[2.8293348E4,1.8401705E4,9.891644E3,1.3724251E4,4.6774546E3,2.789722E3,7.1019214E3,1.3618185E4,1.0606556E2,4.551727E3,1.2572777E2,3.242198E1,2.7573E3,6.938148E3,1.6377325E2,1.2154382E4,1.463803E3,7.132126E1,3.47443E1,1.4232751E3,3.1284517E3,4.8606064E1,7.71217E1,2.7018066E3,5.549346E1,3.3550469E3,3.583101E3,9.234743E0,1.5453851E2],"tree_param":{"num_deleted":"0","num_feature":"124","num_nodes":"29","size_leaf_vector":"1"}},{"base_weights":[-9.000432E-3,5.38881E-2,-1.2850061E-1,2.201264E-1,4.129368E-3,-2.2896248E-1,9.5273435E-2,-6.347915E-1,2.4507613E-1,2.0100031E-2,-6.054215E-1,-1.5303168E-1,-5.287969E-1,3.6981237E-1,-5.859503E-2,-1.2624823E-1,8.201971E-2,2.5551403E-2,-1.3815044E-1,7.913838E-3,-1.4147884E-2,-1.5081637E-1,-3.4024768E-2,-3.9827205E-2,-4.3195123E-3,-5.72232E-2,1.15012325E-1,-1.1480519E-2,6.312465E-2,-1.1959263E-1,-5.8964203E-4],"categories":[],"categories_nodes":[],"categories_segments":[],"categories_sizes":[],"default_left":[0,0,1,0,0,0,0,0,0,0,0,0,0,0,0,0,0,0,0,0,0,0,0,0,0,0,0,0,0,0,0],"id":24,"left_children":[1,3,5,7,9,11,13,15,17,19,21,23,25,27,29,-1,-1,-1,-1,-1,-1,-1,-1,-1,-1,-1,-1,-1,-1,-1,-1],"loss_changes":[2.1154375E2,1.5255661E2,2.1821623E2,9.077951E1,1.3820343E2,1.5242963E2,1.270874E2,1.11318665E2,7.04539E1,1.3197795E2,8.62552E1,1.4400137E2,9.9341125E1,1.369663E2,1.1557821E2,0E0,0E0,0E0,0E0,0E0,0E0,0E0,0E0,0E0,0E0,0E0,0E0,0E0,0E0,0E0,0E0],"parents":[2147483647,0,0,1,1,2,2,3,3,4,4,5,5,6,6,7,7,8,8,9,9,10,10,11,11,12,12,13,13,14,14],"right_children":[2,4,6,8,10,12,14,16,18,20,22,24,26,28,30,-1,-1,-1,-1,-1,-1,-1,-1,-1,-1,-1,-1,-1,-1,-1,-1],"split_conditions":[-1.3210353E-1,1.1E1,8.5624003E-1,-7.9319584E-1,1E0,2E1,-2.6111615E-1,1.5670075E0,4.9961257E0,4.2396817E-1,-6.371488E-1,-5.2843047E-3,1E0,3E0,-7.0577376E-2,-1.2624823E-1,8.201971E-2,2.5551403E-2,-1.3815044E-1,7.913838E-3,-1.4147884E-2,-1.5081637E-1,-3.4024768E-2,-3.9827205E-2,-4.3195123E-3,-5.72232E-2,1.15012325E-1,-1.1480519E-2,6.312465E-2,-1.1959263E-1,-5.8964203E-4],"split_indices":[1,11,6,1,22,11,5,8,8,8,5,1,98,10,1,0,0,0,0,0,0,0,0,0,0,0,0,0,0,0,0],"split_type":[0,0,0,0,0,0,0,0,0,0,0,0,0,0,0,0,0,0,0,0,0,0,0,0,0,0,0,0,0,0,0],"sum_hessian":[2.8146898E4,1.8442068E4,9.704831E3,4.2476675E3,1.41944E4,6.697852E3,3.0069792E3,1.1975471E2,4.1279126E3,1.3832936E4,3.6146567E2,5.3456235E3,1.3522283E3,1.0794943E3,1.927485E3,8.375473E1,3.5999973E1,4.10243E3,2.5482676E1,1.0131541E4,3.7013938E3,8.100604E1,2.8045963E2,1.6527587E3,3.6928647E3,1.3187698E3,3.3458557E1,3.7847684E2,7.0101746E2,8.439499E1,1.84309E3],"tree_param":{"num_deleted":"0","num_feature":"124","num_nodes":"31","size_leaf_vector":"1"}},{"base_weights":[1.1556293E-2,2.6864728E-1,-1.0468045E-2,1.14160925E-1,5.348383E-1,2.673093E-1,-3.5363823E-2,5.4962146E-1,2.0097792E-2,1.3420824E0,4.4378874E-1,1.4034823E-1,6.646457E-1,-4.846917E-2,4.7580272E-1,6.221808E-2,-1.8558392E-1,-3.0592576E-2,2.7287988E-2,-1.6888595E-1,1.5235436E-1,4.7734313E-2,-1.8180224E-1,-5.1708417E-3,4.1905794E-2,-7.1353675E-3,9.5370315E-2,-4.1355933E-3,-8.714252E-2,7.979196E-2,-1.0968603E-2],"categories":[],"categories_nodes":[],"categories_segments":[],"categories_sizes":[],"default_left":[0,0,0,0,0,0,1,0,1,0,0,0,0,0,0,0,0,0,0,0,0,0,0,0,0,0,0,0,0,0,0],"id":25,"left_children":[1,3,5,7,9,11,13,15,17,19,21,23,25,27,29,-1,-1,-1,-1,-1,-1,-1,-1,-1,-1,-1,-1,-1,-1,-1,-1],"loss_changes":[1.6043623E2,9.188118E1,1.8049683E2,5.7989773E1,5.973143E1,1.0820677E2,1.6048582E2,4.5050797E1,9.613662E1,4.8057556E1,5.6959656E1,8.7178215E1,1.1061087E2,1.3668327E2,1.1302922E2,0E0,0E0,0E0,0E0,0E0,0E0,0E0,0E0,0E0,0E0,0E0,0E0,0E0,0E0,0E0,0E0],"parents":[2147483647,0,0,1,1,2,2,3,3,4,4,5,5,6,6,7,7,8,8,9,9,10,10,11,11,12,12,13,13,14,14],"right_children":[2,4,6,8,10,12,14,16,18,20,22,24,26,28,30,-1,-1,-1,-1,-1,-1,-1,-1,-1,-1,-1,-1,-1,-1,-1,-1],"split_conditions":[8E0,-7.6017804E-2,-5.801206E-1,-9.378104E-1,-5.94253E-2,-3.3177197E-1,2.8211524E0,1E0,-3.1539392E-1,5E0,1E0,-4.7794777E-1,-6.815175E-1,1E0,3.5900311E0,6.221808E-2,-1.8558392E-1,-3.0592576E-2,2.7287988E-2,-1.6888595E-1,1.5235436E-1,4.7734313E-2,-1.8180224E-1,-5.1708417E-3,4.1905794E-2,-7.1353675E-3,9.5370315E-2,-4.1355933E-3,-8.714252E-2,7.979196E-2,-1.0968603E-2],"split_indices":[11,2,2,6,2,7,6,107,4,9,59,3,6,74,6,0,0,0,0,0,0,0,0,0,0,0,0,0,0,0,0],"split_type":[0,0,0,0,0,0,0,0,0,0,0,0,0,0,0,0,0,0,0,0,0,0,0,0,0,0,0,0,0,0,0],"sum_hessian":[2.8332818E4,2.2347927E3,2.6098025E4,1.4150087E3,8.197841E2,2.1458403E3,2.3952186E4,2.5049796E2,1.1645107E3,8.169932E1,7.380848E2,1.6272406E3,5.1859973E2,2.335433E4,5.978559E2,2.4388272E2,6.6152396E0,5.0848553E2,6.560252E2,4.145763E0,7.755356E1,7.280727E2,1.0012134E1,9.63864E2,6.633766E2,1.4645314E2,3.7214655E2,2.3155236E4,1.9909247E2,3.8543774E2,2.1241815E2],"tree_param":{"num_deleted":"0","num_feature":"124","num_nodes":"31","size_leaf_vector":"1"}},{"base_weights":[5.7672793E-3,-2.8764948E-3,6.402827E-1,-1.3313614E-1,4.0452458E-2,-2.2621015E-1,7.2534055E-1,-1.954408E-1,4.9491343E-1,4.663124E-2,-1.6828933E-1,7.826431E-1,-1.6762023E-1,6.8127885E-3,-3.3614997E-2,5.8642026E-2,-1.0094152E-1,2.115696E-2,6.161015E-4,8.261548E-2,-1.7238393E-1],"categories":[],"categories_nodes":[],"categories_segments":[],"categories_sizes":[],"default_left":[0,1,0,0,0,0,0,0,0,0,0,0,0,0,0,0,0,0,0,0,0],"id":26,"left_children":[1,3,5,7,9,-1,11,13,15,17,-1,19,-1,-1,-1,-1,-1,-1,-1,-1,-1],"loss_changes":[1.5443228E2,1.5679404E2,9.5062256E1,2.7143607E2,2.2205475E2,0E0,5.200981E1,2.3400664E2,8.677841E1,1.3865977E2,0E0,4.074095E1,0E0,0E0,0E0,0E0,0E0,0E0,0E0,0E0,0E0],"parents":[2147483647,0,0,1,1,2,2,3,3,4,4,6,6,7,7,8,8,9,9,11,11],"right_children":[2,4,6,8,10,-1,12,14,16,18,-1,20,-1,-1,-1,-1,-1,-1,-1,-1,-1],"split_conditions":[1E0,-6.8883294E-1,-7.1848553E-1,1E0,1E0,-2.2621015E-1,9.9548787E-1,-4.629636E-1,2.710047E0,-5.643533E-1,-1.6828933E-1,1.5250211E0,-1.6762023E-1,6.8127885E-3,-3.3614997E-2,5.8642026E-2,-1.0094152E-1,2.115696E-2,6.161015E-4,8.261548E-2,-1.7238393E-1],"split_indices":[61,4,1,45,106,0,8,1,8,4,0,7,0,0,0,0,0,0,0,0,0],"split_type":[0,0,0,0,0,0,0,0,0,0,0,0,0,0,0,0,0,0,0,0,0],"sum_hessian":[2.8156059E4,2.7778637E4,3.7742285E2,6.933229E3,2.0845408E4,1.0017177E1,3.6740567E2,6.3081294E3,6.2509924E2,2.0771906E4,7.350143E1,3.5950183E2,7.903863E0,2.195728E3,4.1124014E3,5.898306E2,3.5268623E1,4.0917117E3,1.6680195E4,3.5402643E2,5.475385E0],"tree_param":{"num_deleted":"0","num_feature":"124","num_nodes":"21","size_leaf_vector":"1"}},{"base_weights":[1.25024775E-2,1.809279E-2,-8.5410285E-1,4.1127503E-1,6.047189E-3,-1.0197726E0,2.1157389E0,-6.5928864E-1,5.321912E-1,1.56458E-2,-5.0117224E-1,5.8003444E-2,-1.3313934E-1,-9.819832E-2,3.81818E-1,4.2362005E-2,-1.7597327E-1,-6.5252766E-2,6.510147E-2,-1.0671306E-3,1.7194504E-2,-1.7287974E-1,-3.0315598E-2,-1.3820682E-1,9.797128E-2],"categories":[],"categories_nodes":[],"categories_segments":[],"categories_sizes":[],"default_left":[0,0,0,0,0,0,0,0,0,1,0,0,0,0,0,0,0,0,0,0,0,0,0,0,0],"id":27,"left_children":[1,3,5,7,9,11,13,15,17,19,21,23,-1,-1,-1,-1,-1,-1,-1,-1,-1,-1,-1,-1,-1],"loss_changes":[1.3684267E2,1.3290822E2,9.123418E1,1.0833403E2,1.3258012E2,5.7896454E1,5.591168E1,1.02160416E2,1.0601486E2,1.0993213E2,1.2242115E2,5.3876144E1,0E0,0E0,0E0,0E0,0E0,0E0,0E0,0E0,0E0,0E0,0E0,0E0,0E0],"parents":[2147483647,0,0,1,1,2,2,3,3,4,4,5,5,6,6,7,7,8,8,9,9,10,10,11,11],"right_children":[2,4,6,8,10,12,14,16,18,20,22,24,-1,-1,-1,-1,-1,-1,-1,-1,-1,-1,-1,-1,-1],"split_conditions":[6.710685E0,-6.254453E-1,1.7019582E0,-7.8566206E-1,1E0,-7.06557E-1,1E0,5E0,1E0,1.5250211E0,-7.6694846E-1,1E0,-1.3313934E-1,-9.819832E-2,3.81818E-1,4.2362005E-2,-1.7597327E-1,-6.5252766E-2,6.510147E-2,-1.0671306E-3,1.7194504E-2,-1.7287974E-1,-3.0315598E-2,-1.3820682E-1,9.797128E-2],"split_indices":[8,2,2,1,43,1,120,9,10,7,6,92,0,0,0,0,0,0,0,0,0,0,0,0,0],"split_type":[0,0,0,0,0,0,0,0,0,0,0,0,0,0,0,0,0,0,0,0,0,0,0,0,0],"sum_hessian":[2.8242273E4,2.8062229E4,1.8004518E2,8.331787E2,2.722905E4,1.7115413E2,8.891046E0,8.4102486E1,7.490762E2,2.672429E4,5.0476077E2,3.856982E1,1.325843E2,3.3034167E0,5.5876293E0,4.2698963E1,4.140352E1,6.78721E1,6.812041E2,2.287381E4,3.8504785E3,6.9035645E1,4.3572513E2,1.485735E1,2.3712471E1],"tree_param":{"num_deleted":"0","num_feature":"124","num_nodes":"25","size_leaf_vector":"1"}},{"base_weights":[-4.2026923E-3,1.1856655E-1,-5.4048106E-2,1.3927718E-1,-6.231167E-1,-1.1417567E-1,6.399449E-2,1.4643973E-1,-1.4663254E-1,-1.5105516E0,-1.9189057E-1,2.9034564E-1,-1.5107417E-1,2.516629E-1,-9.562337E-2,1.5636196E-2,-8.9885786E-2,-1.9724567E-1,1.443566E-1,1.13100134E-1,-8.849394E-2,3.3227414E-2,-1.870325E-1,-1.925714E-2,3.0012174E-2,2.714262E-2,-1.1390785E-1,2.7886985E-2,-2.0672683E-2],"categories":[],"categories_nodes":[],"categories_segments":[],"categories_sizes":[],"default_left":[0,0,0,0,0,0,0,0,0,0,0,0,1,0,0,0,0,0,0,0,0,0,0,0,0,0,0,0,0],"id":28,"left_children":[1,3,5,7,9,11,13,15,-1,17,19,21,23,25,27,-1,-1,-1,-1,-1,-1,-1,-1,-1,-1,-1,-1,-1,-1],"loss_changes":[1.7150662E2,1.2440246E2,1.4148535E2,9.076816E1,8.3913666E1,1.971693E2,2.0154932E2,8.145453E1,0E0,1.0083293E2,1.378138E2,1.00663345E2,2.2667331E2,8.530443E1,1.513505E2,0E0,0E0,0E0,0E0,0E0,0E0,0E0,0E0,0E0,0E0,0E0,0E0,0E0,0E0],"parents":[2147483647,0,0,1,1,2,2,3,3,4,4,5,5,6,6,7,7,9,9,10,10,11,11,12,12,13,13,14,14],"right_children":[2,4,6,8,10,12,14,16,-1,18,20,22,24,26,28,-1,-1,-1,-1,-1,-1,-1,-1,-1,-1,-1,-1,-1,-1],"split_conditions":[4E0,1E0,9E0,3.8302114E0,-3.102346E-1,8E0,1.1E1,1E0,-1.4663254E-1,1E0,-2.3125616E-1,1E0,1.8007605E0,1E0,-5.1381683E-1,1.5636196E-2,-8.9885786E-2,-1.9724567E-1,1.443566E-1,1.13100134E-1,-8.849394E-2,3.3227414E-2,-1.870325E-1,-1.925714E-2,3.0012174E-2,2.714262E-2,-1.1390785E-1,2.7886985E-2,-2.0672683E-2],"split_indices":[9,120,9,0,2,11,9,112,0,23,2,32,4,22,1,0,0,0,0,0,0,0,0,0,0,0,0,0,0],"split_type":[0,0,0,0,0,0,0,0,0,0,0,0,0,0,0,0,0,0,0,0,0,0,0,0,0,0,0,0,0],"sum_hessian":[2.8024275E4,8.0920874E3,1.9932188E4,7.8730537E3,2.1903351E2,1.3205641E4,6.7265474E3,7.838993E3,3.4060814E1,7.080943E1,1.4822408E2,1.1032921E3,1.2102349E4,3.0913545E3,3.6351929E3,7.7661255E3,7.2867676E1,6.1522144E1,9.287288E0,5.073987E1,9.74842E1,1.0831201E3,2.0172071E1,1.108355E4,1.0187987E3,3.0488335E3,4.252095E1,8.313786E2,2.8038142E3],"tree_param":{"num_deleted":"0","num_feature":"124","num_nodes":"29","size_leaf_vector":"1"}},{"base_weights":[-7.6634525E-3,-7.32707E-4,-7.19376E-1,-8.973717E-3,5.9377265E-1,9.540942E-1,-9.36813E-1,-2.8747471E-2,2.5691396E-1,7.039081E-1,-1.8345036E-1,1.5452456E0,-1.5876755E-1,-1.1246178E0,1.3160954E0,8.513923E-3,-7.051212E-3,4.3163087E-2,-2.7637944E-2,7.2532535E-2,-1.8039106E-1,5.886626E-2,2.0174105E-1,-1.7582503E-1,-7.394819E-2,1.5849684E-1,-1.1277039E-1],"categories":[],"categories_nodes":[],"categories_segments":[],"categories_sizes":[],"default_left":[0,0,0,1,0,0,0,0,0,0,0,0,0,0,0,0,0,0,0,0,0,0,0,0,0,0,0],"id":29,"left_children":[1,3,5,7,9,11,13,15,17,19,-1,21,-1,23,25,-1,-1,-1,-1,-1,-1,-1,-1,-1,-1,-1,-1],"loss_changes":[1.3814864E2,1.3590134E2,9.9177155E1,1.4385237E2,1.0271948E2,4.9866577E1,1.0283444E2,1.2113581E2,1.7658853E2,2.0833542E1,0E0,1.0604244E1,0E0,5.27912E1,1.4201561E1,0E0,0E0,0E0,0E0,0E0,0E0,0E0,0E0,0E0,0E0,0E0,0E0],"parents":[2147483647,0,0,1,1,2,2,3,3,4,4,5,5,6,6,7,7,8,8,9,9,11,11,13,13,14,14],"right_children":[2,4,6,8,10,12,14,16,18,20,-1,22,-1,24,26,-1,-1,-1,-1,-1,-1,-1,-1,-1,-1,-1,-1],"split_conditions":[1E0,1E0,-5.2925235E-1,2.639097E0,7.5377084E-2,-5.0404817E-1,1E0,1E0,5.911755E-1,1E0,-1.8345036E-1,4.1094527E-1,-1.5876755E-1,-5.021134E-1,-3.3493295E-1,8.513923E-3,-7.051212E-3,4.3163087E-2,-2.7637944E-2,7.2532535E-2,-1.8039106E-1,5.886626E-2,2.0174105E-1,-1.7582503E-1,-7.394819E-2,1.5849684E-1,-1.1277039E-1],"split_indices":[102,61,3,7,2,2,70,15,0,120,0,7,0,4,3,0,0,0,0,0,0,0,0,0,0,0,0],"split_type":[0,0,0,0,0,0,0,0,0,0,0,0,0,0,0,0,0,0,0,0,0,0,0,0,0,0,0],"sum_hessian":[2.8005809E4,2.7736705E4,2.6910245E2,2.735845E4,3.7825684E2,3.0554739E1,2.3854771E2,2.54655E4,1.8929475E3,3.625245E2,1.5732322E1,2.510744E1,5.4472976E0,2.2065454E2,1.7893185E1,6.8326704E3,1.863283E4,1.4259652E3,4.6698224E2,3.6015945E2,2.3650596E0,9.03986E0,1.6067581E1,8.20686E1,1.3858594E2,1.6436256E1,1.456927E0],"tree_param":{"num_deleted":"0","num_feature":"124","num_nodes":"27","size_leaf_vector":"1"}},{"base_weights":[2.1225407E-3,-1.409597E-1,4.851763E-2,-1.8422727E-1,3.4440938E-1,5.5819076E-2,-6.6471404E-1,-4.8628274E-2,-3.6001107E-1,2.62945E-1,1.318844E0,1.9988555E-1,2.1296171E-2,-1.0180542E0,8.754835E-1,-2.6885802E-2,1.0953481E-2,-4.562219E-2,3.7492055E-2,3.1442508E-2,-2.1347454E-1,-1.5249825E-1,1.5153101E-1,-2.7579467E-3,3.6520403E-2,2.6869061E-3,-1.7742817E-1,1.2516308E-1,-1.1682367E-1,-1.3810611E-1,1.5749441E-1],"categories":[],"categories_nodes":[],"categories_segments":[],"categories_sizes":[],"default_left":[1,0,0,0,0,0,0,1,0,0,0,0,0,0,0,0,0,0,0,0,0,0,0,0,0,0,0,0,0,0,0],"id":30,"left_children":[1,3,5,7,9,11,13,15,17,19,21,23,25,27,29,-1,-1,-1,-1,-1,-1,-1,-1,-1,-1,-1,-1,-1,-1,-1,-1],"loss_changes":[1.8602286E2,1.4416156E2,1.1023564E2,1.5016473E2,4.426184E1,1.04180046E2,1.1763076E2,1.23963264E2,1.9416635E2,6.483735E1,2.6395042E1,1.5227754E2,1.6915123E2,6.109494E1,6.620294E1,0E0,0E0,0E0,0E0,0E0,0E0,0E0,0E0,0E0,0E0,0E0,0E0,0E0,0E0,0E0,0E0],"parents":[2147483647,0,0,1,1,2,2,3,3,4,4,5,5,6,6,7,7,8,8,9,9,10,10,11,11,12,12,13,13,14,14],"right_children":[2,4,6,8,10,12,14,16,18,20,22,24,26,28,30,-1,-1,-1,-1,-1,-1,-1,-1,-1,-1,-1,-1,-1,-1,-1,-1],"split_conditions":[-6.8883294E-1,1E0,3.8530865E0,-3.1542638E-1,-4.433903E-1,-5.643533E-1,1.8963797E0,-4.849715E-1,1E0,-4.7582117E-1,4E0,-1.859096E-1,1E0,-6.265931E-1,6.189222E-2,-2.6885802E-2,1.0953481E-2,-4.562219E-2,3.7492055E-2,3.1442508E-2,-2.1347454E-1,-1.5249825E-1,1.5153101E-1,-2.7579467E-3,3.6520403E-2,2.6869061E-3,-1.7742817E-1,1.2516308E-1,-1.1682367E-1,-1.3810611E-1,1.5749441E-1],"split_indices":[4,45,8,1,3,4,7,2,82,3,9,5,85,4,1,0,0,0,0,0,0,0,0,0,0,0,0,0,0,0,0],"split_type":[0,0,0,0,0,0,0,0,0,0,0,0,0,0,0,0,0,0,0,0,0,0,0,0,0,0,0,0,0,0,0],"sum_hessian":[2.8020578E4,6.8605713E3,2.1160006E4,6.29962E3,5.6095087E2,2.0946496E4,2.135103E2,3.5570225E3,2.742598E3,5.188444E2,4.2106434E1,4.048217E3,1.689828E4,1.7394434E2,3.9565956E1,1.4864948E3,2.0705278E3,2.4254575E3,3.1714038E2,5.087892E2,1.00552E1,2.283981E0,3.9822453E1,1.7042031E3,2.344014E3,1.6846977E4,5.1302494E1,1.034021E1,1.6360413E2,9.131658E0,3.04343E1],"tree_param":{"num_deleted":"0","num_feature":"124","num_nodes":"31","size_leaf_vector":"1"}},{"base_weights":[1.2605307E-2,4.619159E-3,5.892545E-1,1.4052892E-1,-2.621568E-2,6.60551E-1,-1.563496E-1,1.5339814E-1,-1.649826E-1,-1.8182347E-2,-1.0507846E0,7.061227E-1,-2.0241633E-1,1.6366217E-2,-1.737004E-1,-7.433542E-3,1.1052518E-2,1.2801493E-2,-1.7579497E-1,3.5107445E-2,8.895234E-2],"categories":[],"categories_nodes":[],"categories_segments":[],"categories_sizes":[],"default_left":[0,0,0,0,0,0,0,0,0,0,0,0,0,0,0,0,0,0,0,0,0],"id":31,"left_children":[1,3,5,7,9,11,-1,13,-1,15,17,19,-1,-1,-1,-1,-1,-1,-1,-1,-1],"loss_changes":[1.2977293E2,1.16491066E2,6.0114014E1,1.18688446E2,1.8646362E2,4.7101227E1,0E0,9.932842E1,0E0,1.6249078E2,1.4714526E2,2.363797E1,0E0,0E0,0E0,0E0,0E0,0E0,0E0,0E0,0E0],"parents":[2147483647,0,0,1,1,2,2,3,3,4,4,5,5,7,7,9,9,10,10,11,11],"right_children":[2,4,6,8,10,12,-1,14,-1,16,18,20,-1,-1,-1,-1,-1,-1,-1,-1,-1],"split_conditions":[1E0,3E0,1.5219945E-1,1E0,1E0,1.6190472E0,-1.563496E-1,1E0,-1.649826E-1,9E0,1.2E1,-5.960865E-1,-2.0241633E-1,1.6366217E-2,-1.737004E-1,-7.433542E-3,1.1052518E-2,1.2801493E-2,-1.7579497E-1,3.5107445E-2,8.895234E-2],"split_indices":[61,9,2,112,74,5,0,102,0,9,11,6,0,0,0,0,0,0,0,0,0],"split_type":[0,0,0,0,0,0,0,0,0,0,0,0,0,0,0,0,0,0,0,0,0],"sum_hessian":[2.8179207E4,2.7795271E4,3.8393515E2,5.139315E3,2.2655955E4,3.7229825E2,1.1636916E1,5.103545E3,3.5770412E1,2.2480709E4,1.7524666E2,3.6680884E2,5.489414E0,5.076893E3,2.665179E1,1.5652285E4,6.828424E3,6.601792E1,1.09228745E2,1.2593108E2,2.4087775E2],"tree_param":{"num_deleted":"0","num_feature":"124","num_nodes":"21","size_leaf_vector":"1"}},{"base_weights":[1.32675525E-2,1.6060825E-2,-1.8744907E-1,7.889541E-3,6.0251844E-1,-1.2867766E-2,2.4100395E-1,6.4921486E-1,-1.5746926E-1,-6.341538E-4,-9.784185E-2,4.2750068E-2,1.4316203E-2,4.9739473E-2,1.07958816E-1],"categories":[],"categories_nodes":[],"categories_segments":[],"categories_sizes":[],"default_left":[0,0,0,0,0,0,0,0,0,0,0,0,0,0,0],"id":32,"left_children":[1,3,-1,5,7,9,11,13,-1,-1,-1,-1,-1,-1,-1],"loss_changes":[1.4805618E2,1.3432703E2,0E0,1.3378534E2,4.0184357E1,1.5997421E2,4.118849E1,2.4149231E1,0E0,0E0,0E0,0E0,0E0,0E0,0E0],"parents":[2147483647,0,0,1,1,3,3,4,4,5,5,6,6,7,7],"right_children":[2,4,-1,6,8,10,12,14,-1,-1,-1,-1,-1,-1,-1],"split_conditions":[1E0,1E0,-1.8744907E-1,1E0,9E0,3.8302114E0,4E0,1.1161224E0,-1.5746926E-1,-6.341538E-4,-9.784185E-2,4.2750068E-2,1.4316203E-2,4.9739473E-2,1.07958816E-1],"split_indices":[27,61,0,56,9,0,9,4,0,0,0,0,0,0,0],"split_type":[0,0,0,0,0,0,0,0,0,0,0,0,0,0,0],"sum_hessian":[2.8071338E4,2.8030854E4,4.048511E1,2.7646658E4,3.8419547E2,2.5387053E4,2.2596055E3,3.768154E2,7.3800554E0,2.5217611E4,1.6944112E2,7.763787E2,1.4832268E3,2.8014584E2,9.666958E1],"tree_param":{"num_deleted":"0","num_feature":"124","num_nodes":"15","size_leaf_vector":"1"}},{"base_weights":[1.2340966E-2,1.0054166E-1,-4.1432146E-2,1.6943559E-1,-3.29656E-2,-1.1896537E-1,8.029338E-2,1.7742226E-1,-1.8877165E-1,-1.8958332E-1,2.2077215E-1,-5.6110907E-2,-3.1761557E-1,2.2608866E-1,-3.8792495E-2,1.4784954E-2,6.683756E-2,-7.7681714E-3,-9.6359074E-2,2.5337918E-2,-1.6378812E-1,-3.016219E-2,1.5818693E-3,-2.6582226E-2,-1.3636065E-1,1.620919E-2,5.9652384E-2,3.7647482E-2,-1.1706493E-2],"categories":[],"categories_nodes":[],"categories_segments":[],"categories_sizes":[],"default_left":[0,0,0,0,1,0,0,0,0,0,0,1,0,0,0,0,0,0,0,0,0,0,0,0,0,0,0,0,0],"id":33,"left_children":[1,3,5,7,9,11,13,15,-1,17,19,21,23,25,27,-1,-1,-1,-1,-1,-1,-1,-1,-1,-1,-1,-1,-1,-1],"loss_changes":[1.3341962E2,9.800506E1,1.6494725E2,1.158056E2,1.441976E2,1.3329019E2,1.1808505E2,1.0156006E2,0E0,1.9424463E2,8.43496E1,1.4325133E2,1.3864972E2,7.239015E1,1.2174306E2,0E0,0E0,0E0,0E0,0E0,0E0,0E0,0E0,0E0,0E0,0E0,0E0,0E0,0E0],"parents":[2147483647,0,0,1,1,2,2,3,3,4,4,5,5,6,6,7,7,9,9,10,10,11,11,12,12,13,13,14,14],"right_children":[2,4,6,8,10,12,14,16,-1,18,20,22,24,26,28,-1,-1,-1,-1,-1,-1,-1,-1,-1,-1,-1,-1,-1,-1],"split_conditions":[5E0,-3.549654E-2,9E0,1E0,2.9294994E-1,8E0,1.1E1,2.639097E0,-1.8877165E-1,4.3148413E-1,1E0,-6.8883294E-1,8.318793E-1,1E0,-8.627684E-1,1.4784954E-2,6.683756E-2,-7.7681714E-3,-9.6359074E-2,2.5337918E-2,-1.6378812E-1,-3.016219E-2,1.5818693E-3,-2.6582226E-2,-1.3636065E-1,1.620919E-2,5.9652384E-2,3.7647482E-2,-1.1706493E-2],"split_indices":[9,5,9,108,3,9,9,7,0,4,60,4,0,24,5,0,0,0,0,0,0,0,0,0,0,0,0,0,0],"split_type":[0,0,0,0,0,0,0,0,0,0,0,0,0,0,0,0,0,0,0,0,0,0,0,0,0,0,0,0,0],"sum_hessian":[2.8128955E4,1.0653618E4,1.7475338E4,7.02713E3,3.626488E3,1.0675553E4,6.799784E3,7.0008633E3,2.6266329E1,2.2425461E3,1.383942E3,8.1105835E3,2.5649692E3,3.0566587E3,3.7431257E3,6.6043496E3,3.9651392E2,1.9602454E3,2.823008E2,1.3609304E3,2.301161E1,1.8370725E3,6.273511E3,2.4451494E3,1.1981993E2,2.607604E3,4.4905463E2,5.93033E2,3.1500925E3],"tree_param":{"num_deleted":"0","num_feature":"124","num_nodes":"29","size_leaf_vector":"1"}},{"base_weights":[1.47745935E-2,9.020501E-3,8.428914E-1,-3.44551E-3,3.5479102E-1,1.1852885E0,-1.1492942E-1,4.7286376E-4,-1.1739292E0,-2.2469114E-1,4.107557E-1,1.3839273E0,-1.6591679E-1,-1.7778976E-1,3.820295E-1,1.0436985E-3,-4.622645E-2,1.2914483E-1,-1.4797495E-1,1.0836371E-1,2.1505643E-2,-1.5141854E-1,1.4717416E-1,-1.7575938E-1,8.677881E-2],"categories":[],"categories_nodes":[],"categories_segments":[],"categories_sizes":[],"default_left":[0,1,0,0,0,0,0,0,0,0,0,0,0,0,0,0,0,0,0,0,0,0,0,0,0],"id":34,"left_children":[1,3,5,7,9,11,13,15,17,-1,19,21,-1,-1,23,-1,-1,-1,-1,-1,-1,-1,-1,-1,-1],"loss_changes":[1.3406113E2,1.2044463E2,6.380513E1,1.2370145E2,1.4250267E2,8.315225E1,4.3683037E1,1.2395292E2,6.975986E1,0E0,1.252254E2,3.640912E1,0E0,0E0,4.4020214E1,0E0,0E0,0E0,0E0,0E0,0E0,0E0,0E0,0E0,0E0],"parents":[2147483647,0,0,1,1,2,2,3,3,4,4,5,5,6,6,7,7,8,8,10,10,11,11,14,14],"right_children":[2,4,6,8,10,12,14,16,18,-1,20,22,-1,-1,24,-1,-1,-1,-1,-1,-1,-1,-1,-1,-1],"split_conditions":[1E0,2.4853988E0,1.5518012E0,3.5900311E0,-5.322648E-1,2E1,-3.3177197E-1,1E0,-5.462325E-1,-2.2469114E-1,-3.8009164E-1,3E0,-1.6591679E-1,-1.7778976E-1,1.8007605E0,1.0436985E-3,-4.622645E-2,1.2914483E-1,-1.4797495E-1,1.0836371E-1,2.1505643E-2,-1.5141854E-1,1.4717416E-1,-1.7575938E-1,8.677881E-2],"split_indices":[57,4,4,6,2,11,7,43,2,0,1,9,0,0,4,0,0,0,0,0,0,0,0,0,0],"split_type":[0,0,0,0,0,0,0,0,0,0,0,0,0,0,0,0,0,0,0,0,0,0,0,0,0],"sum_hessian":[2.8134787E4,2.7941648E4,1.9313907E2,2.6970283E4,9.7136536E2,1.4210321E2,5.1035854E1,2.6881293E4,8.898966E1,1.9630455E1,9.517349E2,1.3330734E2,8.795876E0,1.114935E1,3.9886505E1,2.6315615E4,5.656766E2,9.464942E0,7.952472E1,2.1341241E2,7.383225E2,3.4427867E0,1.2986455E2,6.895521E0,3.2990982E1],"tree_param":{"num_deleted":"0","num_feature":"124","num_nodes":"25","size_leaf_vector":"1"}},{"base_weights":[1.4597365E-2,-9.225719E-3,1.9492796E-1,-3.1367254E-2,2.1001098E-1,2.1241434E-1,-6.872316E-1,-4.1081514E-2,5.439932E-1,2.483474E-1,-8.8603395E-1,1.7627494E-1,6.675479E-1,9.6077526E-1,-2.0731108E-1,-2.772473E-3,-4.9466673E-2,-4.6647068E-2,6.320898E-2,3.5731085E-2,-7.67257E-4,-1.9727792E-1,7.955061E-2,1.9703193E-2,-1.1913035E-1,-1.8453714E-1,8.218604E-2,1.4851531E-1,-1.8486986E-1],"categories":[],"categories_nodes":[],"categories_segments":[],"categories_sizes":[],"default_left":[0,0,0,0,0,0,0,0,0,0,0,0,0,0,0,0,0,0,0,0,0,0,0,0,0,0,0,0,0],"id":35,"left_children":[1,3,5,7,9,11,13,15,17,19,21,23,25,27,-1,-1,-1,-1,-1,-1,-1,-1,-1,-1,-1,-1,-1,-1,-1],"loss_changes":[1.2078375E2,1.20561386E2,5.0755035E1,1.2610211E2,9.5947815E1,5.2809616E1,1.4817552E2,1.3438748E2,3.364174E1,6.1432068E1,1.4266661E2,8.489702E1,9.3167984E1,4.6825756E1,0E0,0E0,0E0,0E0,0E0,0E0,0E0,0E0,0E0,0E0,0E0,0E0,0E0,0E0,0E0],"parents":[2147483647,0,0,1,1,2,2,3,3,4,4,5,5,6,6,7,7,8,8,9,9,10,10,11,11,12,12,13,13],"right_children":[2,4,6,8,10,12,14,16,18,20,22,24,26,28,-1,-1,-1,-1,-1,-1,-1,-1,-1,-1,-1,-1,-1,-1,-1],"split_conditions":[1E0,1E0,1E0,1E0,1E0,1.5024619E0,-6.6238004E-1,1.9472295E0,-6.889781E-1,4.2396817E-1,1.8963797E0,1.1303043E0,1E0,-4.4475687E-1,-2.0731108E-1,-2.772473E-3,-4.9466673E-2,-4.6647068E-2,6.320898E-2,3.5731085E-2,-7.67257E-4,-1.9727792E-1,7.955061E-2,1.9703193E-2,-1.1913035E-1,-1.8453714E-1,8.218604E-2,1.4851531E-1,-1.8486986E-1],"split_indices":[24,56,17,61,114,3,2,1,1,8,7,3,10,1,0,0,0,0,0,0,0,0,0,0,0,0,0,0,0],"split_type":[0,0,0,0,0,0,0,0,0,0,0,0,0,0,0,0,0,0,0,0,0,0,0,0,0,0,0,0,0],"sum_hessian":[2.8113777E4,2.4833965E4,3.2798123E3,2.2556732E4,2.277232E3,3.2168071E3,6.3005096E1,2.2183127E4,3.7360663E2,2.20102E3,7.621179E1,2.9814553E3,2.3535194E2,2.8920849E1,3.4084248E1,2.1549613E4,6.335133E2,2.9616125E1,3.439905E2,1.5436423E3,6.5737775E2,4.6188137E1,3.0023655E1,2.9377227E3,4.373252E1,1.2982259E1,2.2236969E2,2.4769156E1,4.1516933E0],"tree_param":{"num_deleted":"0","num_feature":"124","num_nodes":"29","size_leaf_vector":"1"}},{"base_weights":[3.2515302E-3,1.9379753E-1,-3.8190022E-2,5.7593655E-2,4.4910672E-1,-6.55246E-2,2.1489014E-1,5.8740457E-3,9.2214084E-1,1.527437E-1,6.361611E-1,2.2642459E-1,-8.814432E-2,3.9040655E-1,-6.691992E-2,5.039328E-2,-8.564511E-3,1.20238565E-1,-7.013797E-2,-8.912008E-3,7.12925E-2,1.2222961E-1,4.639762E-2,3.246561E-2,-1.464013E-1,-4.6695214E-2,-7.0941956E-3,2.1234328E-2,8.838521E-2,-5.068937E-4,-1.8722697E-1],"categories":[],"categories_nodes":[],"categories_segments":[],"categories_sizes":[],"default_left":[0,0,0,0,1,0,0,0,0,1,0,0,0,0,0,0,0,0,0,0,0,0,0,0,0,0,0,0,0,0,0],"id":36,"left_children":[1,3,5,7,9,11,13,15,17,19,21,23,25,27,29,-1,-1,-1,-1,-1,-1,-1,-1,-1,-1,-1,-1,-1,-1,-1,-1],"loss_changes":[2.2110733E2,1.7391208E2,1.5911557E2,1.4589456E2,9.6360504E1,1.370991E2,1.1092694E2,1.4042552E2,8.463963E1,9.146178E1,1.0705725E2,2.4837714E2,1.2550969E2,1.21221176E2,9.617178E1,0E0,0E0,0E0,0E0,0E0,0E0,0E0,0E0,0E0,0E0,0E0,0E0,0E0,0E0,0E0,0E0],"parents":[2147483647,0,0,1,1,2,2,3,3,4,4,5,5,6,6,7,7,8,8,9,9,10,10,11,11,12,12,13,13,14,14],"right_children":[2,4,6,8,10,12,14,16,18,20,22,24,26,28,30,-1,-1,-1,-1,-1,-1,-1,-1,-1,-1,-1,-1,-1,-1,-1,-1],"split_conditions":[-5.0250936E-1,-3.3177197E-1,1E0,-3.371857E-1,-7.123553E-1,-9.3797493E-1,-1.4755154E-1,-6.3346034E-1,-5.1867837E-1,-8.350067E-2,-5.2925235E-1,1E0,-4.7158414E-1,1.3540807E-1,1.2E1,5.039328E-2,-8.564511E-3,1.20238565E-1,-7.013797E-2,-8.912008E-3,7.12925E-2,1.2222961E-1,4.639762E-2,3.246561E-2,-1.464013E-1,-4.6695214E-2,-7.0941956E-3,2.1234328E-2,8.838521E-2,-5.068937E-4,-1.8722697E-1],"split_indices":[0,7,82,2,5,5,8,2,0,6,3,32,0,0,9,0,0,0,0,0,0,0,0,0,0,0,0,0,0,0,0],"split_type":[0,0,0,0,0,0,0,0,0,0,0,0,0,0,0,0,0,0,0,0,0,0,0,0,0,0,0,0,0,0,0],"sum_hessian":[2.799866E4,5.000939E3,2.299772E4,3.2619565E3,1.7389824E3,2.0756594E4,2.241129E3,3.078782E3,1.8317448E2,6.7358765E2,1.0653947E3,1.491897E3,1.9264695E4,1.3807731E3,8.603557E2,4.772145E2,2.6015676E3,1.564314E2,2.6743093E1,4.7104868E2,2.0253899E2,2.4052481E2,8.248699E2,1.4107274E3,8.116958E1,8.357073E2,1.8428988E4,1.01568604E3,3.6508704E2,8.3282605E2,2.7529678E1],"tree_param":{"num_deleted":"0","num_feature":"124","num_nodes":"31","size_leaf_vector":"1"}},{"base_weights":[1.1137999E-2,-1.8871719E-2,1.941365E-1,9.633712E-3,-1.9457588E-1,2.608774E-1,-3.056217E-1,-4.1180152E-1,2.4297362E-2,-2.1092588E-1,1.7550318E0,2.7277917E-1,-2.0031033E-1,1.20442575E-2,-7.838467E-1,-5.5427063E-2,4.6219427E-2,2.981876E-3,-1.02553464E-1,2.7938226E-2,-2.7338667E-2,-1.066217E-1,1.974763E-1,1.7068699E-2,5.2908003E-2,9.9435836E-2,-2.089382E-2,-1.0604868E-1,1.3884436E-1],"categories":[],"categories_nodes":[],"categories_segments":[],"categories_sizes":[],"default_left":[1,0,0,0,0,0,0,0,0,0,0,0,0,0,0,0,0,0,0,0,0,0,0,0,0,0,0,0,0],"id":37,"left_children":[1,3,5,7,9,11,13,15,17,19,21,23,-1,25,27,-1,-1,-1,-1,-1,-1,-1,-1,-1,-1,-1,-1,-1,-1],"loss_changes":[1.5422313E2,1.20840836E2,1.3204422E2,1.2830098E2,1.0772457E2,9.460895E1,7.089041E1,8.718125E1,1.1632486E2,1.0238698E2,1.9535294E1,9.0798065E1,0E0,6.127898E1,1.1339357E2,0E0,0E0,0E0,0E0,0E0,0E0,0E0,0E0,0E0,0E0,0E0,0E0,0E0,0E0],"parents":[2147483647,0,0,1,1,2,2,3,3,4,4,5,5,6,6,7,7,8,8,9,9,10,10,11,11,13,13,14,14],"right_children":[2,4,6,8,10,12,14,16,18,20,22,24,-1,26,28,-1,-1,-1,-1,-1,-1,-1,-1,-1,-1,-1,-1,-1,-1],"split_conditions":[1.5250211E0,1E0,1.1134874E0,-7.775004E-1,1E0,1E0,1.6E1,1E0,6.710685E0,2E0,-1.859096E-1,5E0,-2.0031033E-1,1.8963797E0,4.7777214E0,-5.5427063E-2,4.6219427E-2,2.981876E-3,-1.02553464E-1,2.7938226E-2,-2.7338667E-2,-1.066217E-1,1.974763E-1,1.7068699E-2,5.2908003E-2,9.9435836E-2,-2.089382E-2,-1.0604868E-1,1.3884436E-1],"split_indices":[7,13,1,1,53,91,11,82,8,9,5,10,0,7,5,0,0,0,0,0,0,0,0,0,0,0,0,0,0],"split_type":[0,0,0,0,0,0,0,0,0,0,0,0,0,0,0,0,0,0,0,0,0,0,0,0,0,0,0,0,0],"sum_hessian":[2.8081111E4,2.4125668E4,3.955444E3,2.07588E4,3.3668667E3,3.4898633E3,4.6558072E2,6.970957E2,2.0061705E4,3.3397502E3,2.7116337E1,3.472488E3,1.737537E1,2.80338E2,1.8524269E2,5.9970435E2,9.739134E1,1.9957713E4,1.039923E2,3.7698676E2,2.9627637E3,1.6809769E0,2.543536E1,2.4845032E3,9.8798474E2,5.0840675E1,2.2949734E2,1.64771E2,2.0471695E1],"tree_param":{"num_deleted":"0","num_feature":"124","num_nodes":"29","size_leaf_vector":"1"}},{"base_weights":[-4.5764423E-3,-1.4307743E-2,4.154622E-1,1.0754201E-1,-4.9937874E-2,6.806165E-1,-4.148528E-2,1.2068043E-1,-1.580116E-1,8.955169E-2,-9.618944E-2,-2.2035037E-1,7.427412E-1,1.3447851E-1,-1.5725748E-1,1.3651611E-2,-1.0911589E-1,-1.2795669E-2,2.734874E-2,-2.1544704E-2,6.190151E-4,8.2296796E-2,-1.4705198E-1,-3.310921E-2,9.327054E-2],"categories":[],"categories_nodes":[],"categories_segments":[],"categories_sizes":[],"default_left":[1,0,0,0,0,0,0,0,0,1,0,0,0,0,0,0,0,0,0,0,0,0,0,0,0],"id":38,"left_children":[1,3,5,7,9,11,13,15,-1,17,19,-1,21,23,-1,-1,-1,-1,-1,-1,-1,-1,-1,-1,-1],"loss_changes":[1.1383526E2,1.1817467E2,7.643235E1,1.367449E2,1.3588515E2,7.314549E1,6.2849815E1,1.17437904E2,0E0,2.0987079E2,1.9311925E2,0E0,7.071405E1,7.814759E1,0E0,0E0,0E0,0E0,0E0,0E0,0E0,0E0,0E0,0E0,0E0],"parents":[2147483647,0,0,1,1,2,2,3,3,4,4,5,5,6,6,7,7,9,9,10,10,12,12,13,13],"right_children":[2,4,6,8,10,12,14,16,-1,18,20,-1,22,24,-1,-1,-1,-1,-1,-1,-1,-1,-1,-1,-1],"split_conditions":[2.8211524E0,1.1E1,3.5900311E0,2.820302E0,1E0,-4.2026338E-1,5.6615573E-1,2.645517E0,-1.580116E-1,-3.371857E-1,3.9586652E-2,-2.2035037E-1,3.7973478E0,1.5711666E0,-1.5725748E-1,1.3651611E-2,-1.0911589E-1,-1.2795669E-2,2.734874E-2,-2.1544704E-2,6.190151E-4,8.2296796E-2,-1.4705198E-1,-3.310921E-2,9.327054E-2],"split_indices":[6,11,6,0,15,3,5,3,0,2,7,0,2,1,0,0,0,0,0,0,0,0,0,0,0],"split_type":[0,0,0,0,0,0,0,0,0,0,0,0,0,0,0,0,0,0,0,0,0,0,0,0,0],"sum_hessian":[2.7846998E4,2.72174E4,6.295968E2,6.1575337E3,2.1059867E4,3.9810037E2,2.3149641E2,6.1108887E3,4.6644802E1,5.243904E3,1.5815964E4,7.667557E0,3.9043283E2,2.084518E2,2.3044607E1,6.032941E3,7.794794E1,2.402818E3,2.8410857E3,7.305267E3,8.510697E3,3.773816E2,1.3051239E1,1.3202983E2,7.642197E1],"tree_param":{"num_deleted":"0","num_feature":"124","num_nodes":"25","size_leaf_vector":"1"}},{"base_weights":[1.17135625E-2,2.1648375E-2,-4.918338E-1,2.832002E-1,-1.0538261E-2,1.5628149E-1,-8.7758064E-1,2.1067254E-1,8.2721615E-1,-4.57518E-2,1.3105051E-1,-1.5445884E-1,6.267831E-1,-1.005239E0,1.3818343E0,2.2898223E-2,-1.9314818E-1,-1.3575582E-3,9.533208E-2,1.1128164E-2,-1.15269935E-2,3.417282E-2,-4.9562467E-4,-1.4772148E-1,7.988729E-2,-4.3089107E-2,-1.3759017E-1,1.6843511E-1,-1.0639991E-1],"categories":[],"categories_nodes":[],"categories_segments":[],"categories_sizes":[],"default_left":[0,0,0,0,1,0,0,0,0,0,0,0,0,0,0,0,0,0,0,0,0,0,0,0,0,0,0,0,0],"id":39,"left_children":[1,3,5,7,9,11,13,15,17,19,21,-1,23,25,27,-1,-1,-1,-1,-1,-1,-1,-1,-1,-1,-1,-1,-1,-1],"loss_changes":[1.4018942E2,2.3134027E2,1.3568881E2,1.1863426E2,1.2200739E2,1.6353825E2,9.946857E1,1.0470541E2,3.75338E1,2.1394391E2,1.3965466E2,0E0,5.9054054E1,6.805032E1,1.5559017E1,0E0,0E0,0E0,0E0,0E0,0E0,0E0,0E0,0E0,0E0,0E0,0E0,0E0,0E0],"parents":[2147483647,0,0,1,1,2,2,3,3,4,4,5,5,6,6,7,7,8,8,9,9,10,10,12,12,13,13,14,14],"right_children":[2,4,6,8,10,12,14,16,18,20,22,-1,24,26,28,-1,-1,-1,-1,-1,-1,-1,-1,-1,-1,-1,-1,-1,-1],"split_conditions":[1E0,-5.286728E-1,-6.265931E-1,-4.1021147E-1,1.1536626E0,-7.6694846E-1,3.170037E0,-4.336941E-1,-8.627684E-1,1E0,-1.3883728E-1,-1.5445884E-1,1E0,3E0,-3.8215744E-1,2.2898223E-2,-1.9314818E-1,-1.3575582E-3,9.533208E-2,1.1128164E-2,-1.15269935E-2,3.417282E-2,-4.9562467E-4,-1.4772148E-1,7.988729E-2,-4.3089107E-2,-1.3759017E-1,1.6843511E-1,-1.0639991E-1],"split_indices":[43,0,4,2,7,6,4,2,5,15,0,0,10,9,0,0,0,0,0,0,0,0,0,0,0,0,0,0,0],"split_type":[0,0,0,0,0,0,0,0,0,0,0,0,0,0,0,0,0,0,0,0,0,0,0,0,0,0,0,0,0],"sum_hessian":[2.8019906E4,2.7478719E4,5.411885E2,3.010149E3,2.446857E4,2.0214613E2,3.390424E2,2.6572712E3,3.5287756E2,1.9595732E4,4.872838E3,4.330719E1,1.5883894E2,3.2143613E2,1.7606247E1,2.6356367E3,2.1634523E1,4.6139412E1,3.0673816E2,6.012834E3,1.3582897E4,1.9110553E3,2.9617827E3,1.1436045E1,1.474029E2,1.2692551E2,1.9451062E2,1.5945358E1,1.6608887E0],"tree_param":{"num_deleted":"0","num_feature":"124","num_nodes":"29","size_leaf_vector":"1"}},{"base_weights":[9.791388E-3,1.5237968E-1,-2.040885E-2,4.9399987E-2,4.8541144E-1,-1.7818231E-2,-1.7380792E-1,6.8273437E-3,7.28631E-1,7.493554E-1,1.7750382E-1,-3.7126634E-2,1.862924E-1,4.3955814E-2,-6.304101E-3,8.8271655E-2,-1.8414252E-1,4.6063706E-2,1.0929996E-1,2.2996776E-2,-2.0671146E-1,-1.9695568E-3,-2.8794972E-2,9.9792145E-3,5.0818194E-2],"categories":[],"categories_nodes":[],"categories_segments":[],"categories_sizes":[],"default_left":[0,0,0,0,0,0,0,0,0,0,0,0,0,0,0,0,0,0,0,0,0,0,0,0,0],"id":40,"left_children":[1,3,5,7,9,11,-1,13,15,17,19,21,23,-1,-1,-1,-1,-1,-1,-1,-1,-1,-1,-1,-1],"loss_changes":[1.20648796E2,1.6791856E2,1.02852684E2,1.081854E2,9.385376E1,9.099395E1,0E0,1.0650616E2,8.901065E1,6.1246735E1,6.348854E1,9.221359E1,5.5508247E1,0E0,0E0,0E0,0E0,0E0,0E0,0E0,0E0,0E0,0E0,0E0,0E0],"parents":[2147483647,0,0,1,1,2,2,3,3,4,4,5,5,7,7,8,8,9,9,10,10,11,11,12,12],"right_children":[2,4,6,8,10,12,-1,14,16,18,20,22,24,-1,-1,-1,-1,-1,-1,-1,-1,-1,-1,-1,-1],"split_conditions":[-5.0250936E-1,3.9586652E-2,1E0,-3.371857E-1,3E0,1E0,-1.7380792E-1,-6.3346034E-1,2.653296E-1,2E0,6.8044347E-1,1.1473895E0,6.9169015E-1,4.3955814E-2,-6.304101E-3,8.8271655E-2,-1.8414252E-1,4.6063706E-2,1.0929996E-1,2.2996776E-2,-2.0671146E-1,-1.9695568E-3,-2.8794972E-2,9.9792145E-3,5.0818194E-2],"split_indices":[0,7,68,2,10,56,0,2,5,10,4,1,3,0,0,0,0,0,0,0,0,0,0,0,0],"split_type":[0,0,0,0,0,0,0,0,0,0,0,0,0,0,0,0,0,0,0,0,0,0,0,0,0],"sum_hessian":[2.8015736E4,4.8959253E3,2.311981E4,3.7404546E3,1.1554707E3,2.3086002E4,3.3808315E1,3.5207896E3,2.1966498E2,6.213794E2,5.3409125E2,2.1091604E4,1.9943997E3,4.887037E2,3.032086E3,2.0785948E2,1.1805498E1,3.3894754E2,2.824319E2,5.2276996E2,1.1321267E1,1.9722086E4,1.369517E3,1.5730022E3,4.2139746E2],"tree_param":{"num_deleted":"0","num_feature":"124","num_nodes":"25","size_leaf_vector":"1"}},{"base_weights":[7.2709764E-3,-4.1320033E-2,7.8139484E-2,-8.328234E-2,3.953122E-1,3.5332546E-1,-8.685693E-3,-9.342347E-2,7.7337825E-1,5.7495236E-1,-1.0872976E-1,-1.0967616E0,3.8028193E-1,-8.242971E-2,1.8333565E-1,2.870349E-2,-1.1127258E-2,9.736771E-2,-1.6949551E-1,6.5690115E-2,-7.927625E-2,-5.241219E-2,5.4597266E-2,4.93777E-2,-2.2727637E-1,4.131063E-2,-4.0133204E-2,-1.3233594E-2,3.5136558E-2,3.0780872E-2,-3.0037925E-2],"categories":[],"categories_nodes":[],"categories_segments":[],"categories_sizes":[],"default_left":[1,1,0,0,0,0,1,0,0,0,0,0,0,0,0,0,0,0,0,0,0,0,0,0,0,0,0,0,0,0,0],"id":41,"left_children":[1,3,5,7,9,11,13,15,17,19,21,23,25,27,29,-1,-1,-1,-1,-1,-1,-1,-1,-1,-1,-1,-1,-1,-1,-1,-1],"loss_changes":[9.653571E1,3.0474448E2,2.724516E2,1.3189215E2,1.3210915E2,1.0732184E2,1.22770935E2,1.01873245E2,8.947133E1,1.2104434E2,1.0472467E2,9.496407E1,6.907065E1,1.3566042E2,1.4494131E2,0E0,0E0,0E0,0E0,0E0,0E0,0E0,0E0,0E0,0E0,0E0,0E0,0E0,0E0,0E0,0E0],"parents":[2147483647,0,0,1,1,2,2,3,3,4,4,5,5,6,6,7,7,8,8,9,9,10,10,11,11,12,12,13,13,14,14],"right_children":[2,4,6,8,10,12,14,16,18,20,22,24,26,28,30,-1,-1,-1,-1,-1,-1,-1,-1,-1,-1,-1,-1,-1,-1,-1,-1],"split_conditions":[3.9586652E-2,4.0268064E-1,-3.843853E-1,1E0,1.0411869E0,1E0,1.027102E0,-6.3346034E-1,-3.0739954E-2,2.1119597E0,1.2833949E0,-8.133126E-1,1.112533E0,1E0,6.665671E-1,2.870349E-2,-1.1127258E-2,9.736771E-2,-1.6949551E-1,6.5690115E-2,-7.927625E-2,-5.241219E-2,5.4597266E-2,4.93777E-2,-2.2727637E-1,4.131063E-2,-4.0133204E-2,-1.3233594E-2,3.5136558E-2,3.0780872E-2,-3.0037925E-2],"split_indices":[7,2,2,109,0,11,6,2,2,4,6,4,6,82,2,0,0,0,0,0,0,0,0,0,0,0,0,0,0,0,0],"split_type":[0,0,0,0,0,0,0,0,0,0,0,0,0,0,0,0,0,0,0,0,0,0,0,0,0,0,0,0,0,0,0],"sum_hessian":[2.8031654E4,1.6629826E4,1.1401827E4,1.5172492E4,1.4573346E3,2.7338916E3,8.667936E3,1.4995862E4,1.766299E2,1.0743105E3,3.8302408E2,4.9170006E1,2.6847217E3,6.2631875E3,2.4047483E3,6.7132446E2,1.4324537E4,1.6393271E2,1.2697182E1,1.0140706E3,6.0239925E1,2.3446281E2,1.4856128E2,2.1147804E1,2.8022202E1,2.5769714E3,1.0775011E2,5.617602E3,6.455852E2,1.9128766E3,4.9187177E2],"tree_param":{"num_deleted":"0","num_feature":"124","num_nodes":"31","size_leaf_vector":"1"}},{"base_weights":[1.571462E-2,2.9016875E-2,-4.377004E-1,5.3227402E-2,-1.1792474E-1,-1.5012072E0,-5.301924E-2,4.4951994E-2,4.9821988E-1,1.5989284E-1,-2.2201802E-1,1.364216E0,-1.642503E0,-3.176027E-1,6.811361E-1,5.561656E-3,-2.8391583E-2,-9.874319E-2,6.2158246E-2,4.557503E-2,-3.5420164E-2,-3.6026716E-2,1.2884112E-2,-1.06577456E-1,1.8764587E-1,-6.1592292E-2,-1.7655069E-1,-5.1595032E-2,9.994597E-2,-1.4525448E-1,1.0351403E-1],"categories":[],"categories_nodes":[],"categories_segments":[],"categories_sizes":[],"default_left":[0,0,0,1,0,0,0,0,0,0,0,0,0,0,0,0,0,0,0,0,0,0,0,0,0,0,0,0,0,0,0],"id":42,"left_children":[1,3,5,7,9,11,13,15,17,19,21,23,25,27,29,-1,-1,-1,-1,-1,-1,-1,-1,-1,-1,-1,-1,-1,-1,-1,-1],"loss_changes":[1.6934921E2,9.704286E1,3.2731827E2,8.621662E1,1.1162561E2,8.829126E1,1.1457417E2,8.06547E1,7.8955986E1,1.6021649E2,1.3622256E2,1.5112183E1,2.4546509E1,1.1374751E2,1.1954887E2,0E0,0E0,0E0,0E0,0E0,0E0,0E0,0E0,0E0,0E0,0E0,0E0,0E0,0E0,0E0,0E0],"parents":[2147483647,0,0,1,1,2,2,3,3,4,4,5,5,6,6,7,7,8,8,9,9,10,10,11,11,12,12,13,13,14,14],"right_children":[2,4,6,8,10,12,14,16,18,20,22,24,26,28,30,-1,-1,-1,-1,-1,-1,-1,-1,-1,-1,-1,-1,-1,-1,-1,-1],"split_conditions":[1E0,1E0,-5.960865E-1,2.9920144E0,-1.207332E-1,-6.6238004E-1,9.9548787E-1,1E0,1E0,-1.4755154E-1,1.027102E0,1E0,-9.378104E-1,1E0,-3.748235E-1,5.561656E-3,-2.8391583E-2,-9.874319E-2,6.2158246E-2,4.557503E-2,-3.5420164E-2,-3.6026716E-2,1.2884112E-2,-1.06577456E-1,1.8764587E-1,-6.1592292E-2,-1.7655069E-1,-5.1595032E-2,9.994597E-2,-1.4525448E-1,1.0351403E-1],"split_indices":[37,13,6,6,2,2,8,22,10,8,6,101,6,119,2,0,0,0,0,0,0,0,0,0,0,0,0,0,0,0,0],"split_type":[0,0,0,0,0,0,0,0,0,0,0,0,0,0,0,0,0,0,0,0,0,0,0,0,0,0,0,0,0,0,0],"sum_hessian":[2.8074625E4,2.727536E4,7.992665E2,2.3417639E4,3.8577205E3,2.1153758E2,5.877289E2,2.2991178E4,4.2646E2,1.0513107E3,2.80641E3,9.534128E0,2.0200345E2,4.3244623E2,1.5528264E2,2.226984E4,7.213382E2,3.2159515E1,3.9430048E2,6.673623E2,3.839484E2,2.0131433E3,7.932665E2,1.4717584E0,8.06237E0,2.2256859E1,1.797466E2,3.7637326E2,5.6072983E1,2.1655537E1,1.3362709E2],"tree_param":{"num_deleted":"0","num_feature":"124","num_nodes":"31","size_leaf_vector":"1"}},{"base_weights":[1.5627969E-3,-3.975045E-3,7.6183444E-1,-1.0755496E-2,4.945038E-1,-1.7262821E-1,9.626403E-1,-1.1058645E-1,2.2416733E-2,2.537364E-1,8.992182E-1,1.201889E0,1.688771E-1,-1.9626573E-2,1.397707E-2,1.971504E-2,-2.1146396E-3,4.6481527E-2,-6.032432E-2,1.03065275E-1,-4.5542922E-2,1.3426183E-1,-1.5659451E-1,-1.6390757E-1,6.0584094E-2],"categories":[],"categories_nodes":[],"categories_segments":[],"categories_sizes":[],"default_left":[0,0,0,1,0,0,0,0,0,0,0,0,0,0,0,0,0,0,0,0,0,0,0,0,0],"id":43,"left_children":[1,3,5,7,9,-1,11,13,15,17,19,21,23,-1,-1,-1,-1,-1,-1,-1,-1,-1,-1,-1,-1],"loss_changes":[1.1740218E2,9.357275E1,1.0240917E2,9.04522E1,3.5974014E1,0E0,3.5352936E1,1.4615308E2,1.5606136E2,4.2669853E1,2.507331E1,5.8076584E1,3.6169056E1,0E0,0E0,0E0,0E0,0E0,0E0,0E0,0E0,0E0,0E0,0E0,0E0],"parents":[2147483647,0,0,1,1,2,2,3,3,4,4,6,6,7,7,8,8,9,9,10,10,11,11,12,12],"right_children":[2,4,6,8,10,-1,12,14,16,18,20,22,24,-1,-1,-1,-1,-1,-1,-1,-1,-1,-1,-1,-1],"split_conditions":[1E0,1E0,1E0,-6.8883294E-1,1.9E1,-1.7262821E-1,1.5518012E0,9E0,-5.643533E-1,4E0,8E0,2E1,1.8007605E0,-1.9626573E-2,1.397707E-2,1.971504E-2,-2.1146396E-3,4.6481527E-2,-6.032432E-2,1.03065275E-1,-4.5542922E-2,1.3426183E-1,-1.5659451E-1,-1.6390757E-1,6.0584094E-2],"split_indices":[57,61,15,4,11,0,4,9,4,10,9,11,4,0,0,0,0,0,0,0,0,0,0,0,0],"split_type":[0,0,0,0,0,0,0,0,0,0,0,0,0,0,0,0,0,0,0,0,0,0,0,0,0],"sum_hessian":[2.788304E4,2.7682395E4,2.0064464E2,2.731187E4,3.705254E2,1.4416611E1,1.8622803E2,6.8112515E3,2.0500617E4,2.3333797E2,1.3718744E2,1.4270195E2,4.3526066E1,5.0747466E3,1.7365051E3,4.0903828E3,1.6410234E4,1.875909E2,4.5747074E1,1.25272095E2,1.1915341E1,1.362874E2,6.4145517E0,7.9366884E0,3.558938E1],"tree_param":{"num_deleted":"0","num_feature":"124","num_nodes":"25","size_leaf_vector":"1"}},{"base_weights":[7.279595E-3,1.0505766E-2,-1.7583306E-1,1.5507865E-2,-9.116736E-1,2.6384646E-2,-3.6305708E-1,6.6055894E-2,-1.2450216E-1,7.050684E-3,-7.2591365E-3,-1.2629975E-1,-8.41324E-3,8.5210755E-2,-1.3061771E-1],"categories":[],"categories_nodes":[],"categories_segments":[],"categories_sizes":[],"default_left":[0,0,0,0,0,0,0,0,0,0,0,0,0,0,0],"id":44,"left_children":[1,3,-1,5,7,9,11,13,-1,-1,-1,-1,-1,-1,-1],"loss_changes":[1.587337E2,1.283142E2,0E0,1.13920685E2,4.8993835E1,1.1744761E2,1.938581E2,4.3294285E1,0E0,0E0,0E0,0E0,0E0,0E0,0E0],"parents":[2147483647,0,0,1,1,3,3,4,4,5,5,6,6,7,7],"right_children":[2,4,-1,6,8,10,12,14,-1,-1,-1,-1,-1,-1,-1],"split_conditions":[1E0,6.710685E0,-1.7583306E-1,1E0,-7.06557E-1,-1.1264118E-1,-3.053813E-1,4E0,-1.2450216E-1,7.050684E-3,-7.2591365E-3,-1.2629975E-1,-8.41324E-3,8.5210755E-2,-1.3061771E-1],"split_indices":[121,8,0,37,1,1,1,9,0,0,0,0,0,0,0],"split_type":[0,0,0,0,0,0,0,0,0,0,0,0,0,0,0],"sum_hessian":[2.7862549E4,2.7812723E4,4.982611E1,2.7663652E4,1.4907042E2,2.6891934E4,7.717183E2,3.8105774E1,1.1096464E2,1.8600406E4,8.291527E3,1.817572E2,5.899611E2,2.4468563E1,1.363721E1],"tree_param":{"num_deleted":"0","num_feature":"124","num_nodes":"15","size_leaf_vector":"1"}},{"base_weights":[-1.8623872E-3,8.778803E-2,-5.7208203E-2,1.20776474E-1,-1.099225E-1,-5.0528172E-2,-1.0862861E0,2.1054153E-1,7.231287E-3,-2.0226482E-1,7.902224E-1,-3.1655177E-2,-3.7069985E-1,-3.635E-1,-1.5883718E-1,1.3161736E-2,3.6744382E-2,4.3507766E-2,-6.410436E-3,-2.5594993E-2,1.2469516E-1,1.321172E-1,-1.619033E-1,-5.255828E-3,2.9013935E-2,3.0853873E-2,-5.8218062E-2,-1.6653985E-1,9.741198E-2],"categories":[],"categories_nodes":[],"categories_segments":[],"categories_sizes":[],"default_left":[0,0,0,0,1,0,0,0,0,0,0,0,0,0,0,0,0,0,0,0,0,0,0,0,0,0,0,0,0],"id":45,"left_children":[1,3,5,7,9,11,13,15,17,19,21,23,25,27,-1,-1,-1,-1,-1,-1,-1,-1,-1,-1,-1,-1,-1,-1,-1],"loss_changes":[1.375027E2,6.900455E1,1.17731735E2,9.240137E1,1.25931305E2,1.0286322E2,3.950792E1,6.264984E1,1.22225945E2,1.0714967E2,1.8248611E2,1.0816632E2,1.3629909E2,8.2729256E1,0E0,0E0,0E0,0E0,0E0,0E0,0E0,0E0,0E0,0E0,0E0,0E0,0E0,0E0,0E0],"parents":[2147483647,0,0,1,1,2,2,3,3,4,4,5,5,6,6,7,7,8,8,9,9,10,10,11,11,12,12,13,13],"right_children":[2,4,6,8,10,12,14,16,18,20,22,24,26,28,-1,-1,-1,-1,-1,-1,-1,-1,-1,-1,-1,-1,-1,-1,-1],"split_conditions":[5E0,2.1E1,1E0,-1.4755154E-1,2.1385272E0,8.878691E-1,1.3E1,1E0,-5.129224E-1,1E0,8.7361276E-2,2.639097E0,1E0,1.2E1,-1.5883718E-1,1.3161736E-2,3.6744382E-2,4.3507766E-2,-6.410436E-3,-2.5594993E-2,1.2469516E-1,1.321172E-1,-1.619033E-1,-5.255828E-3,2.9013935E-2,3.0853873E-2,-5.8218062E-2,-1.6653985E-1,9.741198E-2],"split_indices":[9,11,74,8,8,0,11,12,0,77,6,7,15,11,0,0,0,0,0,0,0,0,0,0,0,0,0,0,0],"split_type":[0,0,0,0,0,0,0,0,0,0,0,0,0,0,0,0,0,0,0,0,0,0,0,0,0,0,0,0,0],"sum_hessian":[2.7710385E4,1.0576974E4,1.713341E4,9.064869E3,1.5121045E3,1.7023953E4,1.0945812E2,5.062093E3,4.0027769E3,1.3721195E3,1.3998502E2,1.6077349E4,9.4660425E2,4.5574512E1,6.3883614E1,3.3691824E3,1.6929102E3,5.712885E2,3.4314885E3,1.3239E3,4.821947E1,1.1507624E2,2.4908775E1,1.5097484E4,9.798644E2,2.2464034E2,7.2196387E2,2.2971462E1,2.2603052E1],"tree_param":{"num_deleted":"0","num_feature":"124","num_nodes":"29","size_leaf_vector":"1"}},{"base_weights":[-8.436015E-3,8.54163E-4,-4.8531124E-1,-3.5533388E-3,9.951122E-1,2.9740348E-1,-7.369549E-1,5.825008E-2,-7.454349E-2,1.0911447E0,-1.6496286E-1,-8.3856976E-1,1.3309604E0,-1.0241739E0,2.6411486E-1,2.2710089E-2,1.5202047E-3,-1.3028446E-2,1.0194615E-2,-9.510385E-4,1.2869516E-1,4.6363827E-2,-1.88507E-1,1.529138E-1,-1.511216E-1,-5.15518E-2,-1.7272708E-1,-1.93712E-1,5.142216E-2],"categories":[],"categories_nodes":[],"categories_segments":[],"categories_sizes":[],"default_left":[0,0,0,0,0,0,0,0,0,0,0,0,0,0,0,0,0,0,0,0,0,0,0,0,0,0,0,0,0],"id":46,"left_children":[1,3,5,7,9,11,13,15,17,19,-1,21,23,25,27,-1,-1,-1,-1,-1,-1,-1,-1,-1,-1,-1,-1,-1,-1],"loss_changes":[1.2248143E2,1.1884511E2,1.04276115E2,1.18467255E2,3.2199272E1,1.5285599E2,1.1529848E2,1.0491844E2,1.236411E2,2.5033463E1,0E0,8.561459E1,4.0644386E1,1.1036029E2,5.0537884E1,0E0,0E0,0E0,0E0,0E0,0E0,0E0,0E0,0E0,0E0,0E0,0E0,0E0,0E0],"parents":[2147483647,0,0,1,1,2,2,3,3,4,4,5,5,6,6,7,7,8,8,9,9,11,11,12,12,13,13,14,14],"right_children":[2,4,6,8,10,12,14,16,18,20,-1,22,24,26,28,-1,-1,-1,-1,-1,-1,-1,-1,-1,-1,-1,-1,-1,-1],"split_conditions":[1E0,1E0,-4.5588607E-1,-1.4755154E-1,1.1E1,-4.9774757E-1,1.1536626E0,3E0,7.8230387E-1,1E0,-1.6496286E-1,-8.5237944E-1,1.9E1,4.2396817E-1,-3.7763375E-1,2.2710089E-2,1.5202047E-3,-1.3028446E-2,1.0194615E-2,-9.510385E-4,1.2869516E-1,4.6363827E-2,-1.88507E-1,1.529138E-1,-1.511216E-1,-5.15518E-2,-1.7272708E-1,-1.93712E-1,5.142216E-2],"split_indices":[83,48,0,8,9,0,7,9,7,92,0,6,11,8,4,0,0,0,0,0,0,0,0,0,0,0,0,0,0],"split_type":[0,0,0,0,0,0,0,0,0,0,0,0,0,0,0,0,0,0,0,0,0,0,0,0,0,0,0,0,0],"sum_hessian":[2.7645492E4,2.7118191E4,5.27301E2,2.69995E4,1.1869116E2,1.282401E2,3.9906094E2,1.4433766E4,1.2565734E4,1.1509925E2,3.591911E0,6.118303E1,6.705707E1,3.1007394E2,8.898699E1,2.9314045E3,1.1502361E4,9.549853E3,3.0158816E3,1.752733E1,9.757192E1,2.7509127E1,3.36739E1,6.3118E1,3.93907E0,1.8092027E2,1.2915366E2,8.391011E0,8.059598E1],"tree_param":{"num_deleted":"0","num_feature":"124","num_nodes":"29","size_leaf_vector":"1"}},{"base_weights":[4.901806E-4,9.105406E-3,-4.1484562E-1,4.8043382E-1,1.7629872E-3,-6.8752307E-1,1.7386438E-1,-9.124283E-1,7.695704E-1,-1.7796788E-2,1.4275552E-1,-9.486324E-1,5.8951277E-1,4.2087874E-1,-1.643938E-1,-1.9498138E-1,3.247515E-2,1.0841765E-1,3.409348E-2,4.170764E-3,-7.334195E-3,2.841482E-2,-4.3369248E-3,-1.6305832E-2,-1.2508145E-1,-1.5045622E-1,1.04486465E-1,-1.4661863E-1,6.1464477E-2],"categories":[],"categories_nodes":[],"categories_segments":[],"categories_sizes":[],"default_left":[0,0,0,0,0,0,0,0,0,0,0,0,0,0,0,0,0,0,0,0,0,0,0,0,0,0,0,0,0],"id":47,"left_children":[1,3,5,7,9,11,13,15,17,19,21,23,25,27,-1,-1,-1,-1,-1,-1,-1,-1,-1,-1,-1,-1,-1,-1,-1],"loss_changes":[9.91119E1,9.3907745E1,9.047643E1,1.6833229E2,7.3692024E1,1.289007E2,8.105772E1,9.305185E1,4.618486E1,7.756293E1,8.568427E1,7.574527E1,6.446271E1,5.880684E1,0E0,0E0,0E0,0E0,0E0,0E0,0E0,0E0,0E0,0E0,0E0,0E0,0E0,0E0,0E0],"parents":[2147483647,0,0,1,1,2,2,3,3,4,4,5,5,6,6,7,7,8,8,9,9,10,10,11,11,12,12,13,13],"right_children":[2,4,6,8,10,12,14,16,18,20,22,24,26,28,-1,-1,-1,-1,-1,-1,-1,-1,-1,-1,-1,-1,-1,-1,-1],"split_conditions":[1E0,-5.9716874E-1,8E0,2E0,1E0,-8.350067E-2,5E0,-3.3177197E-1,1E0,6E0,1E0,2E0,-2.6528633E-1,-7.6694846E-1,-1.643938E-1,-1.9498138E-1,3.247515E-2,1.0841765E-1,3.409348E-2,4.170764E-3,-7.334195E-3,2.841482E-2,-4.3369248E-3,-1.6305832E-2,-1.2508145E-1,-1.5045622E-1,1.04486465E-1,-1.4661863E-1,6.1464477E-2],